#include "conv_net.h"

const DTYPE biases_C1[C1_N_FILTERS] = {-289,78,-81,-450,-207,-4,-62,-9,-65,-172,-43,219,459,-14,-1252,189,-66,-80,-39,-24,-170,-168,9,-90,-52,-36,-85,-83,-71,-89,292,93};

const DTYPE biases_C2[C2_N_FILTERS] = {468,-96,-249,-85,-89,190,-21,-40,-49,-54,-39,30,199,32,-46,-2210,-36,217,-65,-93,-224,-45,-56,-49,-51,-72,-45,274,-59,27,-311,193};

const DTYPE biases_C3[C3_N_FILTERS] = {296,408,-307,527,-125,406,301,-863,-298,247,1398,319,-182,-235,-184,208,603,244,-636,-210,-330,109,-160,-182,-148,243,-585,-622,902,476,-149,862};

const DTYPE biases_C4[C4_N_FILTERS] = {97,183,-328,1432,1243,417,873,1745,1374,1733,848,1269,1396,147,1279,-3608,1507,1450,-1875,-701,3140,-118,749,-504,1027,-967,1444,-140,275,2282,1191,595};

const DTYPE biases_F1[F1_ROWS] = {-165,-160,2957,8,851,-19,-41,747,2621,-142,-42,-1297,-124,407,-86,-82,266,-2105,-446,-67,2309,137,1489,2502,-747,-550,362,-41,-1420,-1778,-900,1305,-1235,-966,-1685,-1045,1357,243,-820,2470,5,-36,-70,-2182,0,-62,801,-61,-3264,-889,-65,-1629,-692,329,1942,-187,-2067,-20,-1029,1340,-1372,-68,-1072,-36,-67,-2329,-104,-68,-112,-171,37,-90,-317,-83,-1208,-551,-856,1135,-351,-119,-131,-263,-159,-215,1646,-3579,-442,-106,-73,1028,38,-1090,1910,-967,-74,-50,818,-1813,-853,507,804,27,-57,-127,-66,-46,323,448,-1222,-928,170,-40,375,1683,-68,-1848,-69,640,-326,-65,-569,-45,-878,-303,-14,-911,-126,-285,-319,-77,-720,-1208,-2391,1305,-49,-684,1199,-759,-163,-2843,-544,-91,-1069,-1542,-57,-833,-1599,-79,222,-32,-69,25,-524,-1505,264,-874,-65,-50,-238,-135,-24,217,-2019,-76,-37,-1847,-96,-663,-274,992,185,-633,-56,309,213,417,-109,-37,-1902,-454,-599,-72,-412,-1418,926,-62,-61,-1116,-795,-216,-1764,226,-855,-752,-69,427,-452,63,-346,-45,-155,-444,1282,-176,-54,-991,960,-145,-34,681,797,-493,-1573,-1714,-1368,-121,222,-61,-290,-53,-152,-336,-102,-58,-40,-50,-576,-377,-248,2162,-133,-705,-43,-32,-54,-34,1253,2203,-70,-68,-74,-1382,-1882,-158,-49,-1373,25,464,-38,-1016,-238,-44,-250,-85,2810,-842};

const DTYPE biases_F2[F2_ROWS] = {-188,1740,149,-136,165,-228,-707,-830,-582,1826,-779,22,-1109,-652,-548,-182,-240,-1151,82,-767,-142,408,-1316,-186,-579,-267,11,-749,-126,-329,-182,83,897,-1080,2718,-744,1040,-27,457,17,251,-219,154,-185,-1027,90,832,-127,-752,541,-1041,-697,-411,-181,-180,-546,-145,-1582,-400,-117,-64,-118,-676,1373,575,143,-1020,317,-790,-68,-372,2337,-195,-349,-106,-85,-23,-749,131,2634,-636,-628,378,-580,-168,-1221,288,76,199,-543,-490,-786,-402,24,4037,1060,-730,2264,-426,-109,69,3206,-245,3485,2176,1005,508,-725,-315,-939,3265,-489,691,-1002,-1224,160,-627,-1104,-189,727,-923,-171,2274,1935,-385,-1389,2635,1737};

const DTYPE biases_F3[F3_ROWS] = {124,-1030,79,570,122,304,54,-98,-121,-261};
