#include "conv_net.h"

const DTYPE weights_C1[C1_W_DMNIN][C1_W_DMNIN][C1_N_CHAN][C1_N_FILTERS] = {
		-416,-18,204,115,80,-160,-73,-206,-246,-117,250,352,105,-118,-61,596,-57,-113,0,-122,-28,-66,78,-11,9,-37,-104,-80,22,-176,-185,-93,-119,245,125,-69,3,-132,-81,-187,-369,21,-253,-164,-153,12,-257,324,-10,-139,-28,-120,-443,38,-67,-112,-181,-66,-91,49,-10,-158,75,188,185,-138,-139,266,71,-21,-62,172,-220,320,29,-89,-25,48,0,91,16,-74,-63,29,54,10,-92,-128,-94,25,-4,96,-116,-46,37,-281,-57,92,347,33,-172,-91,-34,-663,-136,-792,277,290,-131,74,-218,-126,-25,20,72,-55,-73,5,62,15,10,22,0,-75,-86,-129,-166,-44,246,-147,129,-300,-84,-62,-32,-659,-312,-408,-528,-295,-213,-119,-311,-95,-120,19,86,-118,-371,-9,-54,-98,-164,-95,-30,-41,-95,-52,-84,-27,441,179,-163,-71,-256,12,-55,-42,-215,224,-141,-244,230,-18,-172,-378,8,-67,113,-112,-39,-115,76,-31,-165,-93,-75,71,-85,-101,-145,159,-87,-90,311,167,98,-138,-52,-513,-78,-696,113,207,144,-74,-203,-139,-110,-4,74,-11,-9,-250,9,-66,-43,7,-96,-95,27,63,-48,98,230,20,161,-175,-111,-80,73,-658,-237,-185,-626,-559,-108,-116,-138,137,-35,7,-97,-64,-353,-144,53,11,-47,-10,4,0,-101,65,-71,-248,296,-77,-224,19,-81,-72,32,-303,-202,411,-289,-426,252,-78,135,-212,-9,-26,96,30,67,-343,162,-22,-75,-78,-24,-14,55,68,-212,179,-432,-95,316,336,103,-77,-87,-286,-125,-224,117,331,-62,-133,-132,-209,10,72,49,-14,-63,-255,0,-30,-106,-103,-57,-20,10,-2,247,-52,-22,132,94,-20,21,-141,-59,-288,-138,-226,-508,-541,-221,-64,-80,175,-100,47,-167,-64,-315,-122,-174,-81,-162,43,-89,31,-7,41,173,-47,230,-64,-222,135,34,-65,-24,-159,-97,348,-191,-412,110,-127,225,-157,-15,-33,-19,-116,63,-199,76,-24,-82,28,-59,-128,-9,-60,64,312,-386,106,127,436,-72,-45,-38,-196,-266,168,47,-65,-256,-17,-380,-48,-7,-46,127,-58,-85,-216,245,-47,-38,-31,-90,-72,-56,-29,32,-140,-299,56,-167,-181,83,-45,61,-375,-302,-25,-559,-803,30,-96,-212,424,-18,-71,-94,-99,-305,-180,-265,-13,-187,36,-97,-22,-105,-128,73,130,87,32,-416,177,53,-6,-4,-253,-269,-83,-154,-354,90,14,-114,-234,-19,-53,46,-53,60,-128,13,-9,-36,-80,8,-87,-10,-130,-107,-219,-211,-144,-102,59,-64,-234,1,-401,-222,-80,111,-473,52,-64,53,21,-21,-104,-35,-109,-147,59,-66,-42,-83,-86,16,-19,15,-105,60,-6,-207,194,181,-30,-118,-203,38,-254,-430,-189,-359,-528,-70,-73,-333,84,-75,-24,9,-38,-377,20,69,2,-73,-9,-132,-16,-77,-223,259,30,-189,-113,29,446,-174,-84,15,-14,-162,275,44,104,281,-60,-230,161,1,4,38,-12,59,13,152,-11,-153,34,-82,-43,-23,-85,-75,273,-401,-94,-231,2,-96,-218,-34,-443,-59,-500,-313,-80,-168,-11,11,-1589,-95,16,68,-45,-142,-54,-357,-133,-126,-64,-76,12,44,-215,269,103,-292,-451,-188,-463,146,-40,-53,-600,-262,-149,-695,15,-166,-73,-354,-810,7,-101,289,-40,-257,-63,326,-124,-85,-44,-98,41,-111,-72,219,-569,-196,396,-311,-71,-24,-154,-45,-11,-61,515,-348,167,350,-16,-158,-920,-120,-51,362,-108,44,-319,-244,0,-168,12,-130,-8,-45,-205,-23,260,175,390,-72,9,-47,-86,-43,-307,92,-631,-442,-83,387,36,301,-1143,-9,35,-174,-76,-136,-352,-370,-77,17,63,-116,-84,-86,-117,442,677,425,229,64,-253,-31,-77,51,-878,-153,-399,-790,-69,-28,-22,-56,-17,0,25,-12,5,-239,-339,388,-12,-187,-97,34,-53,-81,-102,-15,-870,314,697,-185,-155,-114,-31,-52,-193,-202,224,-327,118,303,-3,397,-215,-72,-33,106,-3,81,-560,-271,-88,-86,-15,21,-53,13,-134,-262,122,64,-269,129,438,40,-60,-86,-149,-40,-252,-272,-68,33,21,254,-1062,21,-17,44,-74,-99,-218,-174,-25,-57,-51,-64,-116,-52,-56,327,388,418,3,308,-58,-57,-158,-89,-511,-193,-226,-686,-80,-250,-114,88,30,-113,49,-11,-65,-303,-157,130,20,-147,-13,-92,-99,-7,-77,-316,-807,587,89,75,6,9,-104,47,-115,-118,114,-177,-30,122,-101,472,-171,-124,-74,82,48,-80,-265,18,-136,0,-41,25,-135,25,-109,-321,130,-127,-16,273,432,-69,-18,-88,-396,-234,194,-272,-551,-322,-1,22,-1485,-123,-93,136,-70,23,-145,94,-50,-55,-88,-55,-122,59,-179,205,50,48,40,312,-136,60,-40,-18,-653,-245,-47,-857,-451,-10,-10,-199,-372,-29,-22,3,13,-343,-173,-74,-152,-126,-31,0,-28,-26,-192,-139,-63,300,-22,23,-27,-45,-141,-55,-229,-256,-109,-252,20,261,10,87,-484,-49,-52,-154,-60,-30,-76,112,20,-51,-66,-45,18,-94,-86,-451,130,320,568,-726,-320,-27,-294,17,-121,-146,-323,-806,-636,-123,-26,86,-539,-16,-8,-201,-106,-69,58,-289,-21,-103,41,-3,-205,-109,-177,69,-227,83,750,-354,-269,-362,-248,-27,-106,-322,-360,-64,-360,-242,15,-330,49,-48,-11,35,-78,-371,-9,107,-77,-182,-31,-22,-156,-114,-203,189,-1,58,601,-25,-182,-95,-228,20,198,-109,301,-165,195,-107,-68,-213,-86,-70,-69,-96,15,21,26,11,-79,-154,-77,13,-98,-6,-174,-150,149,-314,-520,-1388,-139,563,-164,-30,-10,-115,-1115,-551,-244,-293,22,73,-2004,-87,-78,-527,-40,-87,-142,4,-39,-104,-32,-124,-99,-124,-100,259,156,-593,-1332,-1118,-938,783,-247,-22,-263,-336,-723,343,19,-150,12,-397,-820,24,-151,58,-56,-378,-26,728,26,-39,32,4,-62,-40,-160,186,-606,-700,-574,-444,-692,934,-88,-72,137,-107,133,183,85,-25,44,-120,-339,-99,-85,274,42,-71,-327,-448,-25,-102,-79,-91,-147,-80,-146,-447,-199,307,-159,-1368,-19,122,-229,-56,-256,-14,-872,-197,-166,-375,20,124,-1502,-91,0,-576,15,-112,-243,-60,21,-22,-32,-38,-59,-26,-85,-205,1587,268,-845,-817,-657,96,-77,-38,-724,-152,-718,685,155,-999,-97,-40,-146,-108,-115,-162,-88,-308,-284,959,-50,-64,40,0,-80,-1,-99,-543,-334,308,-293,-439,-946,554,-133,25,64,-68,-142,419,33,-975,-103,102,255,-116,-66,95,-22,24,-525,-654,12,-15,49,-19,-156,-65,-56,-503,154,88,145,-825,176,0,-246,41,-193,-6,59,-356,-184,286,-115,56,-1433,0,-21,-58,18,-113,-190,-4,-85,-117,-66,-36,-69,-49,-120,-784,692,292,71,-549,-464,-340,-109,8,-678,-160,69,462,-95,-278,-84,-224,-55,-13,-14,115,57,-297,-107,581,-103,-130,-29,6,-44,-2,-67,-1369,-652,447,93,-345,-1042,-64,-134,18,14,-242,-34,145,50,-334,-57,55,372,27,-37,199,1,-75,-342,-367,-7,-87,-56,-14,-184,-59,-133,-1009,-244,-195,14,385,297,-63,-103,-97,-405,-185,407,-765,-119,106,-40,45,-1828,17,-94,62,-88,-95,-230,-13,-8,-169,-39,-52,-69,-15,-106,351,63,-114,-73,471,-339,-134,-89,-76,-698,-300,158,-252,19,93,-105,-246,-519,30,-90,40,56,-236,-70,-171,15,-113,-108,-86,-41,-20,-108,104,69,76,-155,424,-332,-149,-47,-54,18,-275,-323,-350,340,166,25,-104,119,52,-117,-119,17,-18,-138,33,-62,-27,-42,-32,-72,4,-161,-52,9,595,-27,-171,-158,53,-309,2,447,-101,-227,-906,-123,-175,25,-220,-800,-29,-25,-282,-22,7,-4,-21,-83,-187,-25,-38,-100,-72,-215,-47,-192,408,245,-148,177,-348,-266,-36,296,-400,-271,-224,-31,-85,9,-241,-132,-107,-29,53,-51,-285,-47,-162,-113,-167,-28,-72,-68,-24,-98,255,221,363,33,-166,86,-82,-76,12,753,-84,-23,-253,30,93,-42,-194,-213,17,-48,-30,-86,-19,-20,134,-53,-193,19,-36,-108,53,-74,-149,132,-511,142,144,-9,-55,-214,-57,-107,-150,-657,-363,4,95,-1,-79,-1861,28,16,-485,-27,-54,6,193,17,-60,-26,-21,-102,-94,-142,44,-162,-807,-295,-9,-849,94,-127,-117,-234,-316,-624,309,178,469,-48,-173,-683,-2,-49,246,-23,-278,52,413,0,-101,41,-22,-52,-21,-51,311,-132,-947,-158,-28,-1086,413,-205,-21,224,-191,-619,33,-138,526,11,-25,-77,30,-28,527,-24,-47,-182,-369,-59,-105,-46,-89,-42,-1,17,-612,86,-450,526,-90,186,-224,-215,-114,-444,-63,47,-138,-20,-105,-126,51,-1430,-63,-102,-649,-117,-80,-164,133,-114,-164,-69,-19,-85,-43,-34,-339,513,-670,215,-228,-538,-183,-151,35,-726,-111,146,634,23,-383,-104,-88,-145,-43,-65,26,-115,-183,-167,427,42,-105,-27,-34,-32,-77,-49,59,-281,-641,34,-77,-1217,92,-222,-65,266,-160,-330,382,-313,-540,-87,11,160,-29,9,586,-59,-139,-449,-962,33,-85,-42,-12,-69,-86,-52,-387,-213,-438,-106,-532,420,81,-135,-102,-468,-231,643,5,-139,259,13,-76,-1765,30,-119,-257,-39,-78,-213,222,-11,-94,-90,44,-157,-99,-53,-501,101,-497,268,-521,-287,-119,-260,34,-609,-267,486,374,-124,-240,-34,-446,-103,-131,-29,226,-116,-271,-1,271,1,-37,2,-39,-128,-44,-83,-113,-220,-348,-198,-422,-1027,103,-90,-79,169,-181,148,232,-243,-402,-52,-370,155,-109,-43,334,-52,-120,-182,-526,26,-44,-44,-41,-51,-94,44,275,-120,-421,-76,92,556,135,-169,-38,-527,-70,299,-616,62,-12,31,-22,-1838,-128,50,-76,-37,-50,-199,145,-85,-151,-86,10,-91,-64,9,-65,-272,-345,116,-3,130,117,-109,-62,-520,-14,-83,-274,-108,-23,-48,-396,-425,14,27,142,-99,-310,-38,-183,28,-98,-79,-139,-187,-110,-189,194,351,-279,-85,-94,-45,44,-200,49,170,-35,-698,-421,183,197,-35,-372,76,-27,1,24,-122,-77,-162,46,-71,-31,36,9,-200,-104,-58,-103,-113,247,-119,158,-510,62,-324,-38,395,-348,213,-720,-341,46,-52,-250,-470,-76,-117,113,-159,-211,-57,-97,-59,14,-10,-156,-147,-38,-222,-87,-80,148,5,-24,149,-44,-283,-9,485,-440,124,61,-55,-9,-35,-212,-124,36,5,66,-106,-177,-68,-247,-63,24,-27,-17,-61,43,-110,180,90,128,-48,233,443,-157,-189,-88,654,-373,-5,191,-158,206,-24,-232,-373,10,-144,-95,-50,-150,-102,290,-108,-119,-15,-93,-139,-47,-51,-242,-140,-608,169,310,-687,61,-180,42,-596,-143,20,-427,-139,-174,70,33,-1001,-43,19,-158,-61,-178,-160,-31,-114,-46,-1,-72,-63,-152,-167,44,-86,-847,-91,180,-834,141,-293,-21,-598,-258,4,366,-61,-44,-111,-7,-64,-70,-78,-47,-7,-265,-51,-5,-17,-10,-43,-147,-103,-44,-179,366,226,-856,-123,325,-652,96,-158,-15,-207,-206,-358,203,-602,193,-24,42,-374,-93,-56,116,-8,-141,-92,-20,-1,-144,23,-115,-171,-110,-84,-304,99,-549,66,128,-420,-19,-304,-120,-785,-327,568,-286,-94,-59,-27,250,-1285,4,-69,-285,-71,-113,-111,9,-66,-23,-86,6,-188,-86,-147,-205,-59,-866,55,123,-970,43,-239,-108,-799,-258,599,344,-227,-228,-48,45,42,-95,-72,-165,-87,-305,-137,132,1,-22,-67,-90,-173,4,-213,55,-242,-927,-46,193,-1065,83,-161,14,-89,-414,-86,367,-676,-328,-48,98,-357,-94,-24,204,-50,-84,-210,-142,25,-88,-36,-77,-146,-69,-93,-387,-117,-223,-204,36,-389,60,-296,-109,-566,-132,549,-147,-182,181,-90,-123,-1565,-124,-82,-4,-103,-106,-280,104,16,-158,-48,11,-166,-33,-63,-77,60,-414,110,-85,-690,60,-272,26,-307,-187,407,489,-189,-6,-72,-302,-114,-87,-35,-3,-35,-336,-14,37,2,-49,35,16,-119,-58,-225,334,152,-497,47,43,-1024,-130,-158,-37,105,-142,-80,392,-450,-229,24,-417,-455,8,-91,57,17,-20,-86,30,-57,-56,38,-102,-140,-41,-99,286,119,97,-66,-74,-60,-97,-273,-42,-600,40,245,-395,-602,-103,-59,-78,-787,13,-53,194,-80,-114,-173,-119,-105,-92,2,-43,-181,-127,-135,-76,-208,-134,164,-183,21,107,-147,-45,-409,-5,-212,46,-540,76,-109,-374,84,-114,-119,128,-90,-312,37,-202,-5,-26,-91,-43,-88,0,-179,142,352,-13,96,-173,262,-219,-229,-21,60,11,-712,48,-343,199,-57,-279,-27,-29,-138,-121,-22,-50,-60,277,-19,-46,25,19,-135,-111,-124,-26,-203
};

const DTYPE weights_C2[C2_W_DMNIN][C2_W_DMNIN][C2_N_CHAN][C2_N_FILTERS] = {
		231,-178,-294,601,-92,-584,-46,-228,-521,470,-52,-316,-268,-1180,-60,-376,-3,317,-21,-139,-410,-25,19,-5,31,0,711,39,18,-168,-266,161,34,19,-79,60,-6,191,112,73,175,815,-17,27,535,98,-103,28,-52,144,2,0,180,-79,-82,-68,-10,-77,-25,-21,28,-126,-269,58,42,-96,-97,280,-47,-636,-325,-86,-297,611,-62,-34,-119,-1818,-83,-1094,-61,91,-66,-227,-202,-100,24,-42,-12,-35,-294,72,-28,300,-958,-213,47,-40,84,-969,-8,-91,244,34,-950,-167,25,-115,551,526,-33,-433,38,99,-43,-427,155,-42,-69,35,25,-60,23,27,-49,-578,471,-187,130,130,-284,209,54,372,49,120,129,-828,-5,-166,-173,585,-64,-36,-34,-32,-39,71,179,0,-42,-118,-157,-100,61,-15,-76,-124,-850,-368,10,-35,-64,-3,42,-18,137,-72,45,-9,46,-114,-64,-186,-79,2,33,-58,-68,-106,-37,0,-15,-23,-30,15,-50,-131,41,77,52,45,-64,-75,53,23,48,26,56,61,4,-17,14,-14,-50,17,-1,-33,36,-70,31,33,-6,-34,19,53,-35,-10,-25,7,-30,47,24,8,-591,570,-53,-1006,23,-310,561,-170,-199,85,-5,-1150,109,462,-69,155,1,87,-62,-197,-902,-40,-52,-16,-68,39,291,-1088,-5,-573,219,-668,-152,181,73,144,-45,53,85,117,194,-332,-28,26,251,354,-76,38,-43,-282,-29,170,389,34,-51,-14,-55,-75,491,10,-20,-180,-257,-16,-490,896,-240,2,15,-2672,-277,-266,557,-588,-58,605,-240,-728,1,-690,22,-366,-11,-369,-37,-12,24,-80,100,-14,-38,-391,47,16,-87,-697,72,-346,-93,47,-21,-334,23,242,-1207,-512,-35,922,220,-264,27,-519,15,26,18,-74,-1297,-13,-61,24,-60,-56,-155,244,-58,339,58,-594,-625,-262,11,-274,-8,93,224,-951,-408,159,27,-423,-252,1195,-8,387,-52,-397,27,297,558,28,-85,8,89,-62,-601,-311,34,-761,915,-364,-194,44,-112,177,-90,-539,-116,-351,-315,162,-56,425,293,-312,-45,-1275,-22,78,16,-141,-141,-53,43,11,-165,-5,-366,204,9,155,-503,348,72,34,8,-54,62,-11,-8,47,34,24,-47,-19,-33,46,20,-41,37,32,58,-11,-50,-54,-5,-54,46,-27,33,48,-55,46,-11,-36,294,-552,-179,58,29,-163,-13,-6,-119,-1090,-43,-228,251,88,27,-741,-68,-53,-46,-260,48,-67,-28,-61,18,-101,-222,65,-37,26,-809,455,-677,179,-347,774,-99,-449,-1267,-315,-475,873,-46,-552,24,749,-17,-103,-6,567,-15,-623,-672,-26,-75,21,17,-48,-68,-279,-30,184,-458,-507,28,-4,-53,-33,26,44,53,-28,28,-24,6,31,61,23,-7,41,-51,-34,-39,-32,45,10,-26,54,-38,-59,-13,28,-45,21,-16,36,-145,31,-68,-30,-10,32,119,-5,68,-104,-65,91,14,88,50,72,19,27,28,78,-103,59,-4,42,19,-17,-102,-72,-20,-29,32,3,268,-426,-97,-198,-132,431,126,-44,-293,-1713,-44,-443,131,-414,-74,288,-82,199,-83,-597,259,-87,-87,-59,-124,-82,20,134,-18,-235,270,-108,-2,57,-32,18,42,11,-1,-32,-26,-99,-66,-14,-96,47,12,-39,22,63,55,-19,-43,38,8,38,-52,-19,-43,103,-33,73,-23,28,-108,162,-161,111,-30,-53,-117,-95,215,-22,-65,223,117,24,-6,-46,57,-89,50,-255,-130,0,-27,-49,10,-1,61,-131,-25,137,228,-197,-404,-65,87,-342,-99,80,-91,174,58,-339,30,270,-199,199,0,-41,-81,-195,-56,-221,-76,-125,-66,-13,-47,-52,-274,-125,30,-38,-118,-16,457,-130,-152,21,-46,78,-102,377,113,-403,-6,283,-327,-219,-12,-435,36,27,-43,123,155,44,27,-54,-91,-21,41,-486,30,-96,-268,-233,35,36,36,30,-58,-41,37,66,24,13,17,5,-30,-102,3,-42,-24,54,18,-39,100,-5,-45,0,-38,-52,46,23,-6,-15,-65,68,-222,-84,-15,12,44,-56,-90,-105,18,74,46,-1,37,-60,8,77,4,-10,-53,14,3,-15,-20,5,-6,-31,129,-15,68,49,12,58,-28,-52,-14,-22,3,19,9,-46,32,-57,36,58,-17,-25,20,36,-13,62,35,25,0,7,35,-41,-35,38,-9,21,11,30,-12,25,-6,10,59,29,-64,30,19,42,6,-1,-29,-12,-19,21,-32,-3,-38,17,-60,54,32,-31,-4,54,2,16,26,-43,-39,-15,9,-75,7,94,9,23,51,-62,-11,87,164,131,-39,110,90,16,-31,140,-37,5,-37,-23,67,-4,-14,10,-68,-19,2,105,-54,-91,-4,-151,43,34,10,-36,-45,7,-27,-13,33,60,33,-110,24,63,-15,-54,42,-18,14,-14,-7,44,19,32,-39,41,37,0,-53,-106,-94,47,-29,58,16,220,-32,-62,-42,63,168,149,26,-62,79,-85,49,-4,-44,-31,-34,62,-30,-19,11,-64,12,-58,-53,-64,-18,-154,53,-4,83,-310,115,171,-127,-77,-52,-107,41,856,9,143,-259,453,0,-236,-29,-197,-46,-43,106,-62,-62,-58,5,-53,211,60,-25,-82,370,-344,120,10,-45,223,-131,-324,211,-77,185,-114,-25,488,-160,1857,-41,337,59,16,4,-105,-31,21,-70,-44,10,3,25,200,-20,93,-314,344,-221,448,-350,-54,-1,-373,-239,315,-875,-384,-60,-304,-31,-446,-102,-1069,-18,-125,2,-652,-388,-62,-65,-37,-74,-28,-174,-248,-31,-66,72,-382,6,-232,-118,32,-6,-65,15,51,57,-165,-64,-360,-32,272,-64,235,-54,132,-93,-174,10,-60,-14,-61,-79,-108,-86,33,-19,-123,-578,-96,-31,116,-132,-11,-40,347,1,-146,-90,329,-64,-547,-450,-1429,-97,-497,-80,1,-52,217,-621,-51,3,-9,-122,-115,-181,-112,-32,-1063,476,66,-160,-771,-1,-415,-93,-66,-13,-703,-677,-54,-13,-600,334,769,5,-1058,-56,147,-29,-414,-643,-34,-34,-41,13,20,458,-587,-51,-691,-59,193,-173,-31,-253,-225,-52,476,-153,58,365,-236,-60,-183,-249,31,30,182,17,58,-46,48,51,11,-37,-111,-158,-126,-75,-60,-18,-175,-654,-130,-46,8,-48,-10,-56,27,154,-93,43,-105,14,-111,0,-156,-61,-66,54,-20,-82,-105,-43,60,24,-42,49,-13,-111,-80,36,11,121,48,-74,51,-16,-38,-40,39,56,18,70,-27,58,-41,-26,-106,-44,-1,57,-94,10,-18,-43,41,72,-30,-21,6,-11,-33,-57,89,64,-6,389,-154,-153,185,-29,-233,881,90,-65,507,0,-389,-936,-1029,-29,-166,-8,589,-7,-564,-1120,-60,-7,-77,-58,14,-78,-896,0,-881,342,-389,40,-90,47,-97,17,-10,41,-100,246,-282,3,-437,270,79,-68,-9,56,184,-20,8,13,-38,11,5,-31,36,154,-37,31,-192,-252,197,-620,-6,-138,-100,-2,-748,-1085,513,400,-484,26,-107,170,510,-83,-334,37,-50,-65,243,-488,-71,16,-10,1,-11,-496,-50,-7,171,-1603,152,-357,322,-58,-79,35,-165,-12,-804,-1351,-114,-21,163,518,627,17,-553,16,17,7,-154,-214,14,14,-30,10,-78,279,442,-4,-528,-93,-982,-672,-137,31,-874,-84,57,351,-215,164,156,45,-324,-343,770,-40,241,-67,-1420,-63,192,716,63,-16,-40,-31,-61,-340,453,43,-798,1009,-275,125,-244,-129,-165,38,-163,-50,133,-186,271,-13,345,-27,-501,-8,-1248,8,-277,-55,21,-297,-93,-50,-57,-52,81,-28,-15,37,158,-578,19,-7,18,-20,-58,-8,-67,46,-4,-41,-5,-56,41,-38,32,-33,-62,-25,-31,30,-8,-40,45,-64,-45,-39,29,8,-26,1,-28,-7,-71,181,-585,-224,143,-112,41,91,-55,101,-1069,21,-201,282,-29,34,-515,-45,-146,0,-95,-141,-5,-51,-37,-64,-10,-126,-171,-8,-104,-422,423,-986,140,-334,-191,-24,-253,-1159,733,29,315,-12,-316,454,566,-27,-116,-24,-146,-27,-480,199,0,-71,-50,-9,18,108,94,-54,-135,-140,-143,52,-15,-20,21,-4,-46,31,35,33,43,58,-43,-68,4,-55,26,-13,76,-30,-17,0,37,26,25,3,54,32,-9,-16,31,-38,49,-76,9,80,6,38,-16,0,-90,-3,85,47,-40,73,0,-13,21,58,26,-11,115,-34,32,-28,-39,-60,-49,60,-12,32,-71,-47,14,-32,380,-91,-26,-134,346,77,-89,347,-1151,-53,-179,-67,-213,-9,33,-70,214,-47,258,288,-13,-34,0,-209,-70,82,-90,-92,-14,-416,-2,-51,27,-77,-64,56,73,0,64,97,-56,15,0,-94,-26,-53,17,60,64,-33,48,58,42,-42,43,-54,-18,8,-19,14,-13,-27,-68,-56,130,-60,38,-28,40,-142,-129,148,-83,-8,132,115,-71,11,-51,26,-134,48,-205,-135,-47,30,-21,-36,-40,35,-98,-54,57,231,-124,-151,-13,115,-526,24,-113,-83,-80,-20,-48,-53,129,173,53,-35,-1,-6,287,-21,-44,-295,-82,-14,21,-18,-35,54,-191,-20,100,-97,-41,242,-32,-102,350,-98,318,89,-287,90,-632,48,416,225,-127,9,-182,-54,397,23,17,-249,-82,-53,-29,-123,-25,-161,-20,-85,-260,109,39,46,-5,-29,43,-4,-70,82,-46,-15,92,25,-18,-49,9,-13,76,38,-51,0,-101,-62,-44,-20,-18,10,18,18,16,-30,-33,-36,-30,-185,-112,-58,-62,-39,-34,-41,-33,-69,124,-46,28,11,-6,-13,2,-9,21,28,92,-85,18,-22,-55,-39,26,86,-46,-48,25,6,30,-11,-8,-33,-20,-40,-12,-32,-63,-14,41,-61,20,52,-47,22,-28,42,-48,-44,-23,-6,-8,40,18,6,42,19,60,3,4,8,-24,-35,6,23,0,-9,69,14,-2,-30,-65,-55,46,29,-24,-11,56,-10,-32,-66,46,-10,-37,10,-15,52,32,39,-85,31,17,61,-40,-35,-30,11,7,16,-63,77,95,146,52,-10,40,20,15,-4,95,7,-21,-28,84,81,18,-10,-46,45,31,12,162,3,-10,-81,-44,-25,-8,20,-69,-5,-35,55,-43,-37,-9,-3,-117,2,5,-23,-5,57,-8,56,-42,53,-42,33,-34,52,-24,24,-52,-64,-15,-45,-1,-103,56,-49,181,-3,-143,-45,-46,71,81,-67,-138,80,-25,-27,-25,56,-5,11,-67,-24,52,-67,39,28,16,-42,-41,17,-200,48,80,303,108,88,-597,-11,-350,746,-113,-48,613,27,115,160,267,-68,24,-78,84,-89,-158,-335,-13,-44,-125,57,1,-61,263,-54,72,-386,12,73,-184,-61,-362,-40,228,47,89,102,-136,-52,-317,-125,569,-20,83,-59,117,-14,261,-32,27,-40,-82,-104,44,85,71,-57,-411,-299,72,194,-725,-344,631,-91,-58,102,-599,-560,-894,-51,99,71,-75,-126,327,49,-154,34,-1438,-190,15,-82,-21,-47,-19,-352,-404,41,-205,-73,800,-67,-102,-116,-336,-88,-256,48,-11,343,-217,-22,518,23,175,-104,87,-45,-105,18,-32,-49,16,16,-126,-23,-59,-52,-73,-70,-131,-225,-78,-416,292,-178,22,-8,-421,-57,74,516,-11,-42,-387,79,-80,-107,401,-63,186,-88,101,247,-65,-30,-24,-107,-76,237,241,-12,62,-289,99,-280,-225,-162,-674,-37,-125,618,-474,-208,246,27,-389,543,1092,-17,-1738,32,299,-24,-225,-1420,-26,-69,47,3,9,307,-368,-5,74,173,461,-137,-99,-266,-99,-58,99,-82,-185,88,-67,14,-242,-611,-303,9,215,-28,12,-71,-259,90,-90,-21,-58,-99,-98,-118,4,-14,-443,-136,-56,47,28,-34,-16,0,-10,122,22,6,0,-29,-124,-8,-28,-84,-109,36,72,-2,-115,-83,-12,-6,52,43,4,-75,6,-2,-36,138,23,-50,-57,62,-84,-59,86,75,166,15,-64,40,6,-64,-99,69,-61,-52,-17,26,-98,12,61,93,11,19,-16,46,41,-43,53,45,11,587,-673,-158,-586,-53,-778,190,-549,-498,500,-21,-852,199,-402,-73,-262,-62,-898,37,-546,-447,-62,-68,-60,-38,16,-1051,-1112,20,-581,-377,-429,87,83,26,-60,-16,-262,-158,59,45,-10,61,-150,319,-158,-35,47,2,-22,-69,-59,224,16,48,25,-30,30,-211,103,-53,-369,-146,-11,-1181,115,6,-102,-95,98,-1935,-666,157,-781,-34,50,498,847,-21,-475,-10,-855,18,273,-14,-36,8,-52,-30,-32,-422,49,47,-354,-1188,432,-201,-219,-119,179,-24,-540,513,-1384,-509,86,-15,279,399,780,-11,-882,41,-103,-45,-530,1161,-74,41,-49,-9,-37,768,47,52,-622,-222,-594,-481,-29,-8,-1510,41,-13,-339,267,-83,-51,22,-324,-394,572,-16,181,-9,-1171,28,229,419,18,8,-64,-38,-21,-109,544,-55,-934,897,-409,210,51,-253,-448,32,-194,-268,554,288,345,40,-250,66,-4,-54,-1195,29,-49,-71,137,216,-28,-9,-2,-53,-8,27,-483,-43,562,9,-366,39,-19,-60,-14,11,-132,-37,17,52,-26,60,55,-82,-36,38,12,-4,39,-13,-25,12,41,26,-38,-30,-6,50,-46,-24,-63,-1,-51,-130,-332,-214,63,-16,-74,222,-281,285,-442,1,77,269,-188,22,-212,18,187,-13,-247,-67,-86,-37,49,-88,-37,70,-277,-44,-192,-74,202,-643,390,-231,-753,4,-67,-1043,153,136,-256,-8,-1206,804,271,-23,-186,-53,19,3,-673,-34,-77,-85,28,24,81,-16,103,19,-102,-861,-214,67,-24,-56,-67,-32,11,-25,-31,4,-35,36,-62,70,-14,42,45,34,-4,48,-17,19,-11,-51,54,5,-41,4,-66,-50,96,-31,-42,-6,7,-32,38,-54,-60,32,-62,51,34,34,0,27,35,9,-81,29,-49,39,104,-97,28,-26,26,56,-13,108,2,-35,21,-30,31,-116,3,-50,610,-111,-8,-102,-24,-207,-713,20,-291,-275,64,-44,-238,24,167,-82,163,160,-74,-86,-37,-142,-24,340,-78,-92,-296,-797,78,-78,67,-63,-52,-64,49,50,53,32,-85,27,58,-73,-18,43,-27,25,106,61,74,-49,-13,-38,-4,-8,-44,62,16,-45,4,126,-2,-102,90,-152,17,-15,-17,-9,-16,107,75,-1,224,-7,78,9,66,10,-231,36,-320,-89,4,0,-37,10,-26,82,-213,-49,80,135,-195,-26,-152,196,-140,1,-207,-230,-50,71,-5,35,-128,-23,160,-74,-100,-71,159,13,-120,-145,-5,26,-71,0,-119,-92,-275,-66,-31,-25,-38,117,-195,-269,134,-6,333,-126,116,-111,-591,-18,-33,-8,-46,-19,400,-3,471,33,-410,-241,-59,-54,2,-108,53,-400,62,-77,-33,-61,-32,37,-51,31,24,49,-53,75,-80,15,47,-49,13,8,52,6,-11,-5,-15,-45,-21,-27,-61,2,41,-36,32,68,75,49,-131,-84,-30,-150,-128,0,-37,19,66,-40,38,-24,44,-24,89,-69,-40,43,-28,-31,-20,19,16,-95,-39,1,22,-55,-53,86,68,-30,0,-62,10,-26,-48,-43,23,43,12,28,-6,50,60,-21,52,28,-37,-39,29,26,43,-14,5,-10,40,-3,39,53,-49,0,-47,-18,4,40,-10,-32,-69,3,-58,-1,53,-8,84,49,22,44,-17,-17,-45,-18,-40,39,78,1,53,21,51,30,50,-16,-18,-18,-11,59,-20,73,39,-85,-84,-45,81,-15,-28,57,123,117,38,-19,52,34,-123,-22,153,-44,-19,-61,92,23,7,-10,29,-40,49,-37,98,-44,-51,-47,-39,-41,9,40,0,-21,29,-76,23,41,-47,-91,-32,23,-9,-71,6,-54,-51,36,55,-26,-20,44,-52,-61,-56,61,18,9,31,9,8,-70,76,-12,111,-45,-116,-188,-38,104,57,33,121,88,39,-32,-53,-59,20,-16,34,-24,-20,-25,-60,9,-29,40,-144,67,-204,55,-40,-209,338,-54,-546,-103,-140,-271,308,32,489,35,-144,493,-372,-101,-175,-57,180,31,-16,-303,6,-19,-41,-102,-6,-412,99,-14,-78,-293,-245,150,-244,-105,-815,-45,397,-90,298,358,64,-73,-64,-53,-429,-49,147,-21,296,-48,227,188,-6,-82,-108,-108,48,412,-99,-57,255,287,39,-15,650,-308,-397,-38,-287,281,-225,-897,-157,9,289,408,-368,-60,121,-69,-183,-59,-108,155,-51,-24,11,-91,-95,-286,-849,46,-54,-341,-525,98,-215,-113,-262,-8,-492,-148,29,340,-701,-34,-20,132,-282,-136,179,-105,-72,-77,169,112,-36,-84,-91,-46,-26,-8,15,14,227,-498,-309,-534,231,-167,-94,-17,-299,609,-438,761,552,-78,50,-424,-191,-119,242,22,-294,-5,189,35,11,46,63,-58,-106,156,78,3,-39,-138,-231,-273,-323,-91,-465,-73,71,214,-226,-205,766,-60,196,841,1038,-60,-1664,-46,284,38,-505,-1293,-25,-24,-17,4,44,95,-77,4,185,-290,-67,-334,-159,-269,-33,0,-249,185,-203,195,-496,-69,182,-56,-477,31,96,2,184,-97,-366,230,3,-47,-76,-175,-103,-220,-41,-17,-86,503,-37,18,-22,-86,44,12,-31,-12,114,133,0,49,-145,-3,-84,-112,-67,-20,36,-45,-86,14,47,-35,-15,-35,-17,-133,-60,-50,20,111,-42,-54,3,-4,24,44,-30,40,112,58,71,90,51,-22,-12,45,21,60,44,-11,-20,-84,45,17,2,-50,-16,-22,1,49,47,-3,-44,-653,-587,-178,-863,-103,-827,833,532,-31,528,-71,-66,614,711,-5,69,-32,-287,-38,-1549,-29,51,-33,-67,-28,-24,-602,-1101,32,-17,189,278,59,242,-2,46,4,-330,0,-31,4,94,62,-217,-88,-46,17,-21,21,-443,3,-46,88,-35,2,6,-16,-12,-260,-626,-23,-149,162,39,-793,-459,-100,-488,-10,675,151,-634,-843,-557,-55,544,777,-106,-56,-49,5,668,14,-888,371,-91,-58,-20,87,8,161,-125,-42,42,-280,300,-355,-92,-134,-190,-13,-882,-44,-1818,-524,-56,12,162,621,403,6,-687,-17,44,41,-755,139,7,51,-58,92,-6,572,293,-20,-377,585,-1000,221,-254,112,-2132,-11,32,-545,-396,376,52,-43,-1400,-380,406,-69,-164,-67,-918,21,465,222,-4,16,12,-42,-89,-27,543,3,-1010,975,-232,6,653,-257,-289,33,237,82,-301,192,163,20,103,164,491,-40,-949,59,-263,10,180,-114,-17,-22,-72,-88,-66,72,84,-77,-333,-255,-262,0,48,-25,-56,38,-22,47,22,-37,13,-22,-10,-100,18,22,28,-9,-6,2,29,13,61,18,-31,48,-32,-57,-32,47,-77,4,43,-104,-233,-195,-155,-21,198,106,-151,-19,-466,-74,-121,194,-532,0,9,21,193,24,54,-149,-13,-28,-19,-84,-109,-8,-360,41,91,-28,61,307,151,-183,-889,-82,302,-237,-27,-441,-192,0,-660,314,58,-11,-292,17,75,-99,-415,76,-40,-63,-24,24,-31,-950,313,-16,433,-349,-559,8,48,-37,52,16,70,-40,20,35,-2,-50,-6,-27,31,11,1,-32,48,22,51,-17,-43,-31,15,20,52,-7,38,-48,20,-32,24,-79,0,-27,19,27,-14,3,15,-9,15,53,20,25,-19,-22,28,22,-65,-32,54,72,9,23,-20,28,-44,94,-19,67,-51,-45,42,-154,52,-104,197,-118,412,569,38,262,-1118,-85,77,-66,27,-42,-140,-10,74,-37,151,29,-88,-39,-105,-33,-50,47,36,-88,-44,-192,320,-79,-14,-50,-63,30,-11,-42,32,58,-29,-117,-42,6,-40,-5,22,14,73,16,63,73,40,4,-17,23,-40,61,80,-26,-42,86,-4,-250,-3,-160,10,-13,-55,-44,54,13,-47,-15,137,-41,104,-44,-39,42,-101,47,-288,-164,67,40,-14,0,53,75,-114,-10,-68,-28,-270,27,2,144,-67,-49,-58,-62,137,136,74,-33,-89,316,155,-89,-24,9,-24,15,-135,-157,10,-59,35,-72,-6,-79,-155,-32,-78,-160,-26,360,-219,-359,-62,-74,33,512,-292,69,-463,-73,-10,125,110,1,302,-73,82,-83,-22,-140,25,-70,-32,-24,-80,-234,-405,-68,132,-497,-102,10,38,-38,3,22,-8,10,9,85,89,-42,29,10,57,-26,46,15,-43,-10,-63,39,-33,39,3,-28,-57,-39,52,5,-126,-61,37,-80,-62,-65,-30,-6,-18,-106,-39,4,85,4,53,-5,-17,-59,5,11,-92,-59,45,-14,-14,72,0,2,-13,24,33,47,-37,-9,25,52,0,15,-28,10,-65,22,-31,32,-16,30,-8,54,28,-25,31,-13,-1,61,-13,-60,31,32,0,-35,-27,-2,-70,-7,-27,0,-8,-30,-84,-64,18,51,40,10,4,-47,-23,18,19,20,47,49,-15,12,4,-58,54,0,-22,-1,-14,-64,-36,53,-52,14,-10,-20,-26,-13,15,-30,-38,-53,-82,104,95,9,74,-25,92,66,-131,-7,105,-2,60,41,68,72,0,29,30,-18,21,-72,156,48,-68,-31,-13,1,54,-22,-51,-34,-8,20,29,7,90,-48,2,55,47,49,-33,13,-24,39,-80,-53,5,48,31,41,-18,-25,-4,40,40,0,-21,54,126,43,57,-5,-230,-138,43,-30,14,44,15,7,97,-17,49,18,-57,-15,52,-6,-49,-26,-14,53,9,-51,-24,-32,-79,50,-89,255,102,-101,-445,-7,256,154,-342,115,432,-29,173,438,-479,-112,87,-20,325,-53,-49,23,-97,-9,-67,36,-72,-376,-98,17,-571,240,421,118,-274,-174,-497,-92,112,60,-480,59,295,-10,82,577,-1666,-40,-199,-6,-180,-66,-575,-28,-25,-60,-22,-1,7,91,151,-20,357,602,-1,219,478,-359,-11,-45,-409,-7,-129,-33,134,-103,352,736,-453,-78,-237,-49,156,12,-119,-599,0,-98,-74,-11,-70,119,-373,-15,167,166,-328,-56,-241,-141,110,-20,427,66,28,163,-774,-19,-268,3,-513,-138,-118,-53,102,-76,-53,98,-85,-71,-39,-155,44,68,-156,-89,-169,-610,127,47,-407,-138,-521,31,275,-206,33,558,-65,-100,306,331,-608,-76,574,-28,340,9,613,518,-19,-13,62,-140,5,-289,-263,-66,141,-364,407,-1414,-94,-131,-50,9,-216,-207,-778,-824,678,-53,534,-13,567,-39,-1102,-6,-3,19,327,-2232,36,-5,-43,10,20,-373,-376,44,59,-804,64,-466,-88,-312,-146,10,-319,-314,315,129,-620,25,17,135,49,-78,343,-34,468,-55,250,186,23,-46,-19,-94,-98,-357,-233,-15,490,1253,47,115,-76,-85,83,-28,28,-47,33,228,-40,-1,-143,-7,-81,-37,-118,8,-7,25,-104,-16,23,-19,-21,2,0,-163,3,8,-56,229,17,-113,-39,93,-11,-3,21,-15,127,74,44,88,73,36,-99,43,-43,-66,21,26,30,6,-19,75,31,37,-31,36,4,-58,89,3,47,-212,499,-95,165,-16,-877,10,124,412,624,-5,251,535,1033,-16,-852,-31,-140,-70,58,-65,-20,-33,-54,-38,43,-77,-222,5,-141,188,387,36,245,42,191,17,-120,-4,-27,220,-50,57,-369,-123,-19,-16,48,-59,-181,-58,-110,-30,-29,46,-59,-15,24,-262,-300,-55,-9,-133,-136,-346,605,98,-649,43,-640,-324,-243,-351,421,-30,310,-241,-172,23,-253,-20,-492,32,196,-147,23,25,-26,-19,-42,-609,-356,44,514,-122,663,-99,97,-81,-154,-54,-1765,576,-339,-1527,610,9,29,546,-152,26,-175,-1,-323,13,-696,241,41,20,46,63,-26,245,37,47,-173,688,-687,634,-801,81,-1711,-131,46,-972,-670,-352,303,-100,-879,-520,644,2,81,18,-744,64,755,259,-29,-68,-31,-55,-33,-558,550,7,-695,846,-23,-39,1129,-202,161,-55,270,-290,-157,-49,-62,-12,-138,328,220,-13,-1600,-41,204,-64,-227,-7,-25,21,-26,-52,-48,-97,-51,34,-480,-785,-53,0,-24,-65,64,0,10,0,-46,31,-70,55,-61,-49,3,-23,-8,-55,56,44,-22,38,-38,12,2,33,-44,36,63,47,62,16,-69,-294,-337,-164,-288,-15,26,88,-102,10,-912,-15,-132,145,-447,-48,-358,29,-45,-34,-124,-19,9,12,-93,-11,-110,398,-134,-21,210,-329,-105,316,-444,-257,-462,-15,149,-481,313,354,450,-22,-180,359,343,-77,-263,16,219,26,-763,-40,-85,30,-46,-22,30,-1272,1013,11,433,175,-744,50,-28,-9,56,38,53,-18,12,-14,-47,-23,-41,-25,43,15,-16,-18,27,-37,14,9,-41,-14,15,-7,17,31,-67,-53,8,-14,67,-61,-36,31,168,-53,-44,12,37,-48,75,51,72,70,66,31,57,39,-68,24,61,52,35,32,34,14,14,-3,-21,-5,-39,-12,-20,-30,-402,-66,-174,-100,-313,86,71,-84,-1849,-43,177,185,148,-70,223,3,-156,-60,261,-8,-84,7,-46,-63,-95,-91,67,-33,630,386,-1,15,-32,-37,-68,57,-1,64,20,40,-18,-78,53,-19,11,9,-90,50,46,36,27,41,38,0,-17,61,-42,-42,-15,35,27,116,27,-290,101,-89,-60,-16,-121,-128,76,-29,-160,-27,230,-95,73,54,13,-11,-138,-10,-151,-248,-24,33,8,-40,-41,86,-58,29,-74,8,-138,-182,24,99,-123,-15,-1,-40,98,159,35,28,68,16,213,-50,-319,17,41,-70,-535,-237,-92,-51,-40,-70,11,-308,-36,21,-93,-210,-5,-257,-44,-379,245,-74,-151,-114,19,-8,24,-100,-176,145,329,-47,-391,-5,-337,-28,829,156,47,-31,-71,74,-51,-154,-654,-20,108,-383,48,66,-14,-33,35,-62,-24,-3,-69,20,-4,43,-28,41,-44,-32,-24,-2,-97,-63,12,-5,-44,-26,36,45,22,4,-3,7,24,-51,85,-51,-51,19,16,-20,33,-70,20,21,134,35,120,-51,15,35,43,26,-117,-10,90,-32,-46,26,2,-9,-54,138,52,-43,-30,-81,-89,-7,-62,46,-51,-1,-9,-2,0,14,15,-34,1,51,38,32,-35,-15,77,36,-65,-5,38,59,-1,48,54,45,28,17,89,50,8,37,-67,5,-19,-24,74,38,22,26,-54,11,-37,35,4,-36,83,3,4,28,4,-29,-32,-55,-21,-32,-34,15,-77,-19,67,46,-64,29,3,-43,-59,35,33,161,113,109,-8,-23,139,161,-3,-9,115,28,22,-8,94,59,36,-6,-36,34,-41,-48,143,31,-118,41,85,46,-72,-50,-18,-58,-91,24,-42,-36,27,45,-65,9,70,30,46,-9,-24,-62,-93,3,19,-57,11,-20,-52,-63,-46,43,-22,-32,22,43,-47,24,-38,42,-182,-145,46,73,-22,-58,-9,-46,99,-51,-34,-30,31,-11,33,8,-41,-77,13,25,27,-101,121,62,-35,44,-4,212,-221,-126,-315,31,-56,-628,165,250,179,1,76,550,-554,-56,-729,-77,316,-59,-320,164,-36,29,-64,72,0,-28,-261,1,-96,-52,-64,-191,-123,-199,-87,-18,-161,365,253,41,496,-64,23,-6,-835,3,-183,-52,-288,-5,-538,-123,-2,-60,-37,30,-81,-7,-169,-20,-305,255,-12,-144,990,-450,211,-44,181,-364,-16,-98,201,-71,-36,82,-1064,-32,-1449,-68,105,-12,-41,48,-77,-92,-49,23,3,-552,290,27,251,393,370,243,202,-102,-55,-100,-18,-86,121,-298,666,-13,-225,246,101,-128,-225,-22,-107,9,131,-180,1,-73,-61,-62,-70,121,-125,-15,217,-285,-63,205,-897,-38,-245,-30,-993,-248,-118,642,192,13,211,182,-419,-9,-601,9,-181,-55,238,-19,-91,47,33,63,9,357,51,22,377,-35,226,-1759,-241,132,41,-44,238,-398,-336,-634,-392,15,129,-214,-270,24,-887,-66,-151,-83,-66,29,25,-61,-32,100,30,-473,-97,-21,-624,631,-147,39,102,-204,-22,29,361,92,70,83,-375,14,-8,-321,-89,-47,58,-14,-98,-46,-269,-219,-46,-51,-63,-124,-47,-47,148,-51,-10,-366,17,-62,-92,19,-45,12,33,116,-103,15,-77,27,39,-111,-186,-48,41,-20,22,-9,-79,-103,1,-16,-23,57,-17,23,-111,-52,81,13,-2,-21,-51,-20,-51,44,43,35,79,98,-56,-24,1,-46,-31,-24,-17,15,-3,-10,48,-10,-60,24,56,-43,-15,-49,36,-19,47,24,47,175,380,-73,-362,-38,-304,-864,-105,406,-317,-37,-1030,-433,705,17,238,-16,254,-76,118,688,39,0,29,-51,8,201,-18,-44,48,-92,-491,6,296,-68,174,-57,-19,-105,-425,139,-53,0,-216,-107,236,-62,-46,13,-68,-35,-74,274,17,-12,27,54,3,170,15,41,98,-184,105,457,-211,-243,-356,-48,-326,413,-62,583,-750,15,-322,-135,-369,-19,-124,56,271,13,-149,420,-37,-56,-4,-24,32,-390,209,37,-433,118,-292,-94,-1135,-79,499,2,-215,526,308,430,-4,11,39,360,-736,27,-71,-9,529,22,-92,-702,-17,-44,32,-56,-113,370,-236,-56,1011,76,-540,-38,-371,-81,1239,-105,137,700,-933,-432,-60,-12,-816,522,357,18,-173,14,98,37,-761,146,-36,-11,-26,23,31,24,-1750,-10,163,831,-255,-240,-211,-92,-104,-33,-573,53,-63,-446,-263,-6,809,433,-479,28,-286,-40,119,-84,-13,-257,-98,-47,-28,-92,-63,158,97,-67,-615,-88,91,-29,-11,44,38,51,-54,-30,52,1,47,-14,39,55,28,45,-49,-30,14,-56,8,-8,-5,0,44,54,-14,31,16,50,78,43,-9,153,172,-98,-1,3,-416,380,-269,-139,-249,-22,-70,-37,-68,30,-229,33,-66,-42,127,69,-27,-66,-44,29,23,-152,-77,-80,-224,-1041,87,-856,100,-153,-3,-81,-351,-1074,283,-213,805,5,-676,-331,429,-13,-137,-38,452,-21,-237,35,-31,44,31,42,-9,208,-311,11,523,-1478,115,7,50,12,44,34,-12,-52,21,58,-3,36,-65,-15,-57,21,-16,-44,-65,31,-60,34,-16,-14,-41,41,-31,-52,17,0,-54,39,-24,33,-29,-89,68,-41,171,11,-29,-19,-30,-3,54,44,110,62,79,-38,75,2,-15,-71,-19,21,-25,-52,-39,25,55,8,-51,-26,-11,-270,-827,-40,110,-109,-115,-14,70,-117,-296,-24,-53,251,-37,-116,102,-51,-101,7,-344,-174,-107,-7,-38,-32,-74,81,-55,-17,127,291,-270,-4,28,19,-60,-11,81,-34,-15,-14,26,18,19,-112,63,53,43,-19,-20,3,-3,-39,34,-10,-47,22,-15,-37,57,-43,95,26,26,19,115,-85,-13,-62,20,-108,-40,127,34,52,160,299,74,5,5,19,-97,10,-100,-74,33,62,0,-42,-36,13,-115,12,164,230,-227,-346,-177,-78,-345,-91,-62,-248,126,7,-253,32,137,-171,266,17,-131,-45,-158,-85,-159,-210,-51,0,-78,-67,-70,-84,66,-61,20,-123,101,379,30,-261,-129,-31,391,-447,436,70,626,-64,-210,-338,-159,24,-9,44,-642,11,-174,-74,-2,8,1,-88,-22,-403,-441,-101,279,49,33,-17,-60,-52,-49,9,-7,-6,12,18,-48,13,98,-21,-69,-40,24,-6,-54,-30,1,81,3,-24,-4,41,-13,74,23,-52,-1,-51,56,-178,41,95,-13,-12,26,-16,-122,6,47,-5,69,-62,-185,4,30,-33,-39,-37,54,-108,52,-47,20,-20,47,13,-56,32,-34,-21,35,38,-49,26,18,38,-19,4,46,-43,20,39,3,6,-26,47,-27,45,26,-10,-56,-23,28,-43,-38,-44,26,-32,-22,47,18,60,21,3,40,-50,27,53,4,88,51,2,34,0,10,-19,13,40,-14,13,57,-4,-15,-8,38,21,43,-8,-45,-20,-71,-13,34,46,-8,-64,47,48,37,15,73,-56,78,137,47,-22,64,22,0,16,85,29,26,29,107,41,1,-31,10,18,-31,-56,97,15,-36,-60,-41,50,-56,53,-37,2,6,-24,-23,-44,82,-21,-94,16,37,-22,-55,-37,-7,-17,-62,58,53,52,-55,28,-36,-53,-11,57,5,-123,49,39,-135,24,103,-24,-18,21,106,48,148,-30,-58,-42,-50,-10,14,2,31,57,-20,-11,-38,-37,57,-37,-62,-75,-74,24,-82,52,-71,-487,-208,14,-255,-64,-265,-71,-178,-394,-98,-2,824,-361,514,-96,-206,-41,-196,-31,-82,34,-18,-40,-24,-14,-45,425,69,-40,-299,-110,-45,126,141,1,-51,-18,47,274,27,153,-134,-65,-44,-250,490,-39,227,-43,-102,-89,118,134,-23,7,-63,10,-86,133,193,-41,274,-305,-57,-277,669,-431,-656,3,52,-657,208,-1355,-205,-44,-112,683,-210,-89,-451,17,17,49,509,-581,12,-47,-12,-74,-23,-72,495,-36,-452,324,447,-289,351,-117,-176,22,-16,-68,-85,-104,262,33,867,-402,-280,15,68,-64,-87,-44,77,48,-19,-22,-72,-66,-90,13,175,-32,388,-144,208,152,-473,-33,-329,32,-860,-767,-373,-654,162,2,270,-371,-849,-84,-413,-100,-232,10,187,-95,0,-4,26,-23,-63,-943,-343,-3,-602,205,-239,-203,29,14,441,-14,193,-779,-821,-443,-661,-24,-346,-557,-477,-17,-898,33,-379,-52,-158,-394,-107,-14,18,1,0,252,242,-38,-1070,59,29,-62,143,-225,-102,-59,227,-140,161,447,-895,35,-555,-416,-142,-36,111,-49,89,11,-175,-60,30,21,-20,-155,-70,-136,-129,42,-108,-387,-88,-42,-59,-60,-92,-27,104,86,-147,53,-48,0,-51,0,-219,-24,40,-50,-18,-62,7,-2,-36,33,2,26,0,-23,-88,12,104,8,16,0,-25,79,-78,24,-17,109,30,44,81,33,3,-13,-10,-62,51,50,5,-8,72,-42,-6,84,0,16,-52,3,35,-9,88,29,14,586,-228,-135,-122,13,49,-427,-92,175,286,34,-696,-895,-908,-18,-111,-34,754,38,-806,-611,-42,20,-8,-72,-28,42,-2125,-61,-425,-459,-728,81,181,-22,-64,23,-201,-223,-168,171,53,7,-283,214,-65,-57,113,-23,49,-64,-45,-93,-24,-37,-34,-51,9,154,-186,-33,-30,-168,50,71,-638,-198,336,0,1142,-583,289,-358,229,-66,143,71,249,-50,0,-65,-682,-50,359,169,-9,-10,9,-61,22,-1164,-172,-67,314,-1410,-83,78,-232,-90,343,-44,-483,424,-973,22,-41,7,572,490,-438,23,8,-46,393,-6,566,-388,4,-64,-11,10,-115,-614,163,-58,441,-57,103,-93,-222,-60,971,-21,40,1023,-173,-227,50,-25,66,224,447,-13,-81,27,-891,23,-941,205,-14,-12,-33,17,35,201,-661,-51,-56,905,-222,53,201,-102,-59,-62,-92,-4,-93,-1238,3,-72,-17,-11,-45,20,-126,-45,109,-70,186,-28,-111,21,26,-43,-55,336,-53,-13,-88,-209,140,67,21,59,-80,6,-58,-77,-30,43,57,2,-54,-72,-45,40,16,-6,22,-44,-54,28,-1,16,-15,37,51,23,-54,-59,65,31,9,100,106,-169,217,-109,33,401,79,10,-752,34,-88,-306,-431,-43,-278,-47,-258,-36,132,-523,-56,-19,-29,-19,11,-179,247,-58,5,-835,-396,-113,152,-198,-225,-104,-310,-539,1030,682,428,-22,-611,-250,658,-42,-151,-36,135,-54,-623,839,11,-53,-37,-33,-102,-653,-32,-47,203,-1877,114,-6,-29,35,-41,-37,-8,31,17,-46,26,22,-18,10,-46,-58,-38,-39,-33,-61,-44,3,10,-45,9,-4,42,58,23,32,-13,-63,-11,11,-62,11,-45,-13,192,70,46,35,-56,41,36,124,-15,49,75,66,-18,-40,49,-39,-45,5,-67,-59,-47,12,51,50,82,-11,40,-60,-1294,-85,168,-40,-274,133,-105,-401,-77,15,402,267,155,-28,137,-38,69,14,-188,195,-58,-51,-6,-274,-70,-41,-163,-63,-40,147,-429,-39,40,13,-74,-6,8,-18,37,26,12,70,-6,-80,41,34,-18,56,-19,10,-18,32,39,13,40,-19,-9,57,28,-52,78,67,0,-24,-92,-39,-10,-19,76,-264,54,22,17,-39,149,259,88,5,-29,-19,-112,-29,-72,-33,-41,43,14,-57,-53,47,-294,25,123,197,-223,-42,-107,-10,-366,-65,-249,-143,-41,-102,-114,-9,117,161,-1,42,84,5,224,24,159,-478,-46,-35,46,-25,-110,-5,-19,41,145,65,-22,-164,221,-339,126,-120,480,8,-525,463,267,32,-406,138,58,-50,365,-6,-9,-74,-501,-359,17,2,-99,-120,55,-363,500,-40,-217,226,561,21,-72,35,103,0,7,77,-36,-18,81,-7,-32,26,15,27,40,49,27,-35,22,-36,16,48,50,-49,6,26,90,12,-125,-7,43,-78,19,2,33,37,43,10,-71,28,18,-58,62,-6,-111,-43,67,-4,10,-13,1,-83,13,-40,-79,-69,-65,81,-148,42,29,6,11,-34,56,-48,33,-18,11,-33,18,1,-32,-18,-7,51,46,51,33,-5,67,-18,23,17,53,-35,17,-11,45,-4,32,-3,-46,-52,-37,-26,0,-9,13,35,107,16,59,0,-64,-11,-27,3,67,-32,18,-21,-43,-24,56,40,-28,-2,-47,19,-44,1,-53,-40,-21,-19,-10,-39,-50,-19,35,-10,-80,-97,11,73,11,57,55,35,36,46,73,54,53,-35,179,-6,-43,16,37,16,-2,52,193,-58,-87,-75,29,19,-10,15,-89,-8,-19,73,33,13,-34,63,-52,-9,-45,32,38,-2,-4,-7,-30,-18,-44,-20,25,-13,-34,12,-34,-44,-29,-21,45,110,-37,-25,141,11,-20,-55,72,93,178,-59,-15,-102,0,48,34,58,-3,32,42,-111,25,-2,55,45,39,-102,-36,-4,-117,74,107,-58,-223,18,-608,-20,-176,-24,324,-179,-140,20,-109,-59,294,-77,-101,-63,-144,-4,-166,-637,-8,-76,-84,-69,-84,124,4,-32,638,-330,252,-53,-123,-75,-661,-142,431,-127,301,117,-567,-54,-645,-256,-2380,-17,70,30,169,1,979,-416,-60,-16,-12,-31,-43,217,68,-23,-159,-329,170,138,-1022,-443,-116,-122,148,-708,-1342,-869,-567,-37,-402,-503,165,-8,-480,29,-206,-26,-890,-844,-56,-14,-23,-69,71,283,-479,-14,-416,130,-442,-42,-45,-135,-359,-95,-561,-44,-62,-827,463,-47,612,1,-519,-95,-8,-20,-277,-53,424,-2,-30,23,-134,-59,-78,-128,250,-57,502,161,548,-304,176,6,-224,17,-465,14,-65,-427,452,2,47,-127,-882,-136,297,-49,422,-30,-145,29,0,-10,4,-9,-115,-677,292,28,-576,-19,-400,-508,74,-21,465,-38,57,-996,212,291,-938,30,-709,-398,102,-28,-1261,-27,249,18,-124,16,-42,-66,-11,5,-7,187,-630,-15,-583,57,290,-262,210,-273,-40,-62,-44,-235,33,468,-2075,-6,-129,-630,-85,-31,62,24,-207,-22,-150,334,-69,21,-41,-123,-38,21,-11,0,-363,-994,-181,-78,-21,-147,-61,-46,127,77,-111,-20,-10,-54,-78,14,-103,-4,-59,47,35,-77,-42,-102,18,43,-45,-50,-18,56,-126,-33,157,27,44,-78,-74,-4,-22,-34,-32,83,167,97,21,-1,-16,8,-34,4,52,-55,-5,44,44,-52,54,7,51,35,31,-7,-5,25,94,0,34,595,-154,-98,-582,-66,-667,605,-457,-289,56,58,-149,-161,-197,-38,-109,-58,-927,26,109,-785,-100,-53,-60,30,-21,-213,-879,-25,103,-1141,-986,5,265,-69,-41,-63,-113,-9,-18,255,344,-30,-209,327,230,-85,-9,-24,-10,-18,-105,166,-13,-14,26,-27,-2,-9,-481,-61,-117,-155,143,86,-526,-212,194,-70,285,-935,-657,-1703,-413,2,804,76,227,-82,-6,-6,-293,34,418,-564,-101,30,-50,-80,-47,-560,425,-55,-462,-1281,95,-549,-488,-49,30,5,-839,-101,-675,450,-649,-39,512,-191,5,-43,188,-51,346,15,410,356,-72,46,32,9,-91,-435,481,-70,-932,188,78,173,80,-168,110,31,31,158,532,285,-219,45,403,5,138,-67,-153,-32,-222,-25,-1037,-656,13,-9,-15,39,37,282,-525,17,-408,570,-249,274,135,-175,174,30,296,26,746,-1296,218,-20,-254,84,419,-28,-374,59,-64,-41,81,6,-41,42,-80,-66,-130,151,-256,-51,677,584,382,39,45,-26,-43,52,-116,-63,19,-48,29,-28,57,-21,53,6,14,59,-37,50,-85,-5,-51,-16,-16,-14,43,27,-36,4,-26,27,55,-145,296,-158,179,-17,182,73,119,-94,-553,30,49,-141,-502,-3,31,-34,-14,10,12,-95,-80,-43,-65,-16,-15,1,230,-63,234,-498,-397,-579,-66,-124,-75,-13,20,189,427,249,-406,-86,-127,232,268,6,-107,-60,1006,-43,-121,207,-23,28,26,-20,38,-534,-251,-3,-601,-2917,-691,26,19,-51,2,5,60,-48,55,-26,-16,-35,25,20,-16,10,-51,49,-14,-65,17,-49,-41,-20,-7,-13,-7,-21,26,-25,10,-89,33,10,-54,-34,-18,21,-15,-18,-83,105,8,56,31,114,25,-9,36,-53,23,-62,49,-35,24,56,34,2,0,-39,-16,57,-30,4,54,105,-1724,-97,255,-39,-244,-343,40,-556,-419,-24,378,-4,75,-114,351,-86,39,-95,-594,207,-95,8,28,-86,-118,-95,13,4,-240,-217,-295,-58,4,-21,-5,28,57,86,61,59,-45,55,-29,25,20,-34,-31,-25,102,9,42,25,-26,9,12,-45,52,32,20,22,47,64,-58,-141,0,-120,-7,-16,136,-215,145,50,36,51,198,159,18,-30,-25,-22,-119,10,-15,31,-10,-13,63,26,31,-22,-287,48,-5,108,-304,33,-45,-45,-199,3,-245,-255,-14,60,11,-5,-106,-113,77,-61,41,-67,144,-38,-102,-418,11,-75,-94,-19,-103,-47,-72,-45,-58,-239,61,-261,170,-420,-151,-13,69,-244,-24,205,60,12,-261,-145,49,2,1164,-31,422,8,-1178,-75,29,-49,-82,-125,-17,-502,855,7,-314,95,362,-38,-46,-63,-7,-47,-89,62,-88,47,0,12,113,-70,-20,-28,41,-18,-10,-46,-25,-33,41,-57,52,52,-19,-34,52,-36,-11,-68,-28,-76,-30,75,-29,6,-20,-23,-114,18,49,-39,172,-25,-71,-11,24,6,-10,61,58,-104,-11,-36,2,-45,-21,42,-67,-5,22,-48,45,-18,0,16,-44,-60,58,63,1,-56,-20,-38,35,-60,66,-24,48,-16,-61,23,-34,-28,27,-20,-15,56,-15,-32,54,40,-36,12,-13,21,40,-32,-21,33,121,-30,86,-61,-22,50,25,-3,-31,-57,-21,-9,10,50,-14,15,-39,47,-63,24,-17,-1,-81,-5,27,53,9,-79,-96,-50,3,-50,35,100,23,-10,-5,1,82,37,-3,10,37,59,4,-1,100,59,-17,3,-60,-17,-19,44,84,5,-45,12,-26,12,-35,-9,27,24,-59,10,57,29,-54,-46,-41,-30,-17,-5,-33,-4,-68,33,-57,-20,20,7,-20,-12,-19,63,69,-38,-32,111,60,37,16,-26,164,9,-143,-85,-107,-91,94,-49,118,-133,-114,-25,23,24,97,17,-59,-79,14,-34,16,45,-12,-106,-37,11,-36,18,-51,-399,50,-4,-348,-84,94,-140,-82,-160,-78,1,-242,95,-197,0,-411,-45,-584,-57,-98,-1134,-40,-39,-48,-19,-59,54,-276,10,92,-122,-174,207,-99,-170,-687,-65,297,-320,-579,247,-634,-39,563,-540,-4233,7,450,19,538,-57,1160,-174,-73,-47,8,-82,0,37,-55,-22,-643,-354,91,-295,-581,-352,58,-3,-382,-236,-81,-495,-188,-28,96,417,-69,-16,250,16,285,-92,-189,-980,-45,-68,27,-144,18,16,260,-16,-94,394,269,88,-86,-73,-14,-35,-139,-244,631,-727,36,-25,-1229,-94,-101,2,149,-44,-258,-14,450,282,20,-79,-3,-28,-85,443,-36,-53,157,525,410,-86,-316,-3,-121,6,-510,-250,155,-816,190,-78,65,-226,544,-47,464,-52,-423,-75,-264,-235,21,-33,-86,0,-58,-42,-588,-45,-183,148,-517,-661,-125,-33,338,-9,-28,-1066,135,491,-284,-14,-194,-22,-317,7,-1493,-56,151,-44,-249,-441,-25,-6,21,-65,-14,3,247,37,300,-147,224,-159,0,-269,-116,-72,-589,223,-898,449,-2472,20,379,-56,-67,10,50,20,-266,3,-394,457,-65,-109,-73,-137,-80,-97,174,50,-739,-1302,-324,30,-142,-87,94,7,49,-104,46,105,16,-22,-18,-60,-90,-37,-40,-11,51,36,-112,37,48,30,-58,-59,57,5,-123,9,49,30,-82,-19,-59,-4,-2,12,-24,114,59,58,-40,108,-33,20,-99,-6,-16,27,-19,-31,50,23,23,91,71,17,30,100,-43,-7,23,-22,-62,-299,-1071,-141,-160,-27,-681,705,438,-862,-779,-28,216,28,290,7,-71,-13,-357,43,-500,157,-33,-22,-34,-55,-28,319,-682,25,373,-744,-179,-217,220,24,-19,-61,-139,129,-89,-15,43,43,-100,-53,-64,-43,60,4,-110,0,-29,92,-2,39,-67,-68,0,63,-623,50,81,299,139,-365,-332,-224,158,-30,152,424,14,-1068,-509,6,-24,-184,-723,-107,675,-2,-232,28,91,-450,-41,-19,-15,69,-38,-345,295,29,-382,-1150,-445,-581,-670,-33,104,21,-1481,-296,-735,297,-451,17,19,-207,-226,-71,28,-61,423,34,83,-391,20,15,-5,40,-100,-607,520,-59,-1545,825,-1027,683,-221,-109,-190,-65,139,154,-375,-303,-333,3,-528,-119,-6,-10,-361,-9,-364,17,-527,-469,9,-57,-21,57,-35,364,-215,-59,-92,736,-452,22,-614,-246,96,-77,192,129,-339,-743,346,-39,118,309,424,-81,-352,10,0,-7,17,-204,9,-22,7,-106,-37,170,-120,-73,347,641,262,-26,12,-23,-56,-40,52,61,41,-16,33,62,-14,-17,-24,41,32,-45,5,-33,-18,-16,-20,44,35,38,17,65,60,9,-88,45,43,28,182,-187,-42,-61,408,-91,280,-77,-752,-9,-31,84,-494,-68,379,-67,158,-68,581,-137,-76,-6,-57,-81,-124,-66,195,-52,194,-343,-86,59,84,-110,425,-13,183,-88,-187,-437,-286,16,-1221,142,517,-67,-211,5,-59,-44,-228,179,-108,-27,-36,-35,-136,-1313,1402,-14,-355,-1651,-517,4,53,55,-35,54,29,14,37,-13,-3,-19,12,17,-57,55,-7,7,-47,-37,17,6,-31,56,-37,-65,-58,-11,-18,16,5,-47,-16,-31,-34,57,18,47,68,76,-24,132,55,-41,13,103,27,-51,29,-38,62,7,-23,-31,65,-10,-4,-31,45,39,-13,17,43,-74,-45,72,-3664,-35,0,-83,-26,377,-218,-377,-906,0,351,270,55,-113,320,-66,-3,-65,-98,101,-87,-7,-56,-113,-37,-251,-16,-24,-276,94,-27,-53,-2,20,-113,-42,80,77,20,86,-49,-54,3,-45,32,-60,-28,-5,2,-43,8,-12,-7,34,-36,-48,-31,-17,-36,-43,-11,-8,9,-153,-28,-75,-3,-64,67,-190,144,-55,3,-17,113,108,-14,46,-39,-5,-65,-6,11,-52,0,47,-55,6,-51,124,-234,-22,-88,-57,-244,96,-14,-1,-55,1,-55,-202,108,185,28,-40,8,210,221,-39,53,-21,-113,-17,35,-219,-11,-34,-36,47,-4,-130,-154,-66,-94,-370,96,1,196,-421,-41,-79,-189,585,-552,335,-136,-30,216,-37,237,-46,987,-59,517,-69,-696,-201,-63,-23,-47,63,-115,-249,391,-37,-40,-343,158,1,28,17,-28,-4,-10,-37,-55,17,0,55,79,-1,31,-63,-5,-25,-105,40,-84,-66,40,18,-7,3,-71,-79,33,-56,-5,-89,50,9,-53,110,-69,58,30,5,-123,-68,-6,-2,187,-99,-159,26,32,68,-18,29,89,-17,46,-31,43,-64,21,-52,-64,54,-16,24,42,-44,33,3,3,42,-15,34,-43,0,5,30,-55,-43,-21,-3,20,50,-28,-15,11,12,-39,-50,13,-23,11,36,11,54,16,-2,-53,-69,31,-65,56,-56,45,-24,15,-78,28,22,11,9,-14,50,-5,40,48,17,7,12,-57,36,-31,43,0,-12,-2,13,-43,36,-2,49,-3,-6,-9,-20,26,94,-27,2,-5,-58,91,110,23,-2,76,-36,78,-61,116,88,31,-28,8,-24,51,71,62,52,-49,39,40,-20,-34,32,-23,7,-42,0,-10,-5,13,18,-115,-58,-8,-8,10,-11,-45,50,-130,50,-15,-44,23,60,-4,-46,47,-13,-29,81,26,18,16,17,99,-1,-139,-80,-101,-4,-24,1,-17,-49,-100,77,-10,-42,-41,1,-29,9,-2,11,-33,50,-30,-46,16,24,6,-53,85,151,-43,-83,143,-59,14,104,-692,-334,1,-15,62,299,271,-113,38,-15,-178,-58,189,-614,-28,-67,0,-12,83,72,169,-37,-118,-250,113,177,-346,-115,-162,-98,-166,-236,11,-17,-501,-6,59,354,-2525,-43,46,-62,-14,-37,205,-119,-19,-39,-42,-10,32,-113,93,-28,455,-81,-14,-559,-147,-316,-48,-6,-862,-160,1114,-343,-629,-76,-280,382,4,43,-857,-38,-1221,-75,209,-397,-62,2,-8,-94,-57,-168,228,38,-211,152,5,-166,98,-86,206,-67,518,456,-698,-437,-469,-26,-176,239,20,-75,544,15,175,-7,157,-54,-68,39,10,-158,-114,170,65,-40,-1074,-583,-441,11,-257,7,58,-36,-207,53,-18,-2087,-332,-18,215,-230,346,-38,828,-51,-460,-10,254,-24,-90,-72,42,1,-40,305,-98,-87,-181,-38,-310,-1147,-627,-63,172,-52,-794,526,-75,501,570,-61,152,1,-283,21,-1077,-69,-232,-43,15,-255,15,-35,43,-20,-13,-657,-255,-50,113,-226,142,-71,222,-289,3,19,-423,-171,635,443,-1827,-25,-43,-185,-199,-47,105,-22,106,-75,185,222,-103,-21,0,-44,-83,32,-130,-53,407,947,48,94,-135,-191,77,44,117,-2,-20,92,-32,-74,-40,-36,-182,-15,-142,30,-28,4,20,11,-56,19,-44,17,-14,15,45,-24,-63,150,-35,-92,-58,31,-62,19,1,60,15,29,71,55,23,22,-38,-10,46,54,44,-48,86,-56,-23,-1,25,55,13,-20,51,-7,30,-33,57,205,-475,-152,434,23,13,-801,-82,208,-55,35,-117,-327,683,-18,-403,-51,283,45,-106,-11,-30,-56,-3,28,-37,109,-29,-44,-425,-1235,74,-267,87,93,-170,-32,-119,2,109,223,229,-20,44,-166,2,-54,39,45,70,10,-81,126,7,11,26,-73,70,4,-142,-49,41,43,-163,-475,-72,-5,152,-30,-241,-295,677,-229,199,-24,-861,100,-588,-20,-117,-47,-585,-40,300,-636,-38,25,-79,41,-33,-215,629,-1,-334,-566,-9,-257,-376,-77,163,-66,-1192,58,282,542,137,10,490,215,-562,-45,-32,30,127,-23,-87,-21,-47,-35,27,18,-77,-190,44,-15,-1488,1123,-216,772,-911,-54,-122,-53,165,-166,-175,-918,56,-69,-307,-169,814,-102,-165,-12,-398,8,313,-585,58,-6,-52,-2,-24,414,13,39,315,306,-493,341,-566,-213,-22,-76,37,-151,-67,-283,190,-39,-138,51,102,-89,-286,-27,-195,-12,-44,123,-49,-49,-69,-151,-61,-164,-271,14,-334,169,-89,48,38,40,-21,-25,0,39,-31,18,-90,30,-74,-90,-5,43,94,-60,61,-46,23,59,-60,-36,13,18,51,-22,41,-47,-29,59,-54,-74,-164,-171,-206,8,-80,38,67,-37,-1393,-15,62,-118,-291,-54,326,-9,85,-15,388,-233,-91,-42,17,6,-91,-25,295,-9,57,-328,-27,462,-475,-188,591,-135,60,-466,242,-62,232,-26,-108,116,801,-18,-53,15,-497,-21,-425,-299,-8,-68,-43,-67,-91,-639,1061,-41,-524,-1277,-359,11,17,-42,-34,-65,39,-5,-63,43,43,-58,-53,-62,54,55,43,-6,32,5,45,-47,54,-10,-3,29,-66,14,-15,-45,-19,16,23,-74,1,38,-38,0,35,18,-12,23,-18,29,-8,162,57,-12,68,38,-95,48,42,54,17,-31,-43,-28,12,-23,23,-25,78,-95,-3,43,-3360,-41,52,-50,42,-123,114,-441,-928,17,10,345,-95,-2,705,27,-206,-1,-161,-10,5,-74,-54,-151,-51,-59,21,-44,-252,385,-118,-8,17,-97,-18,-16,14,31,99,71,19,-82,-41,-24,69,-62,-11,30,30,-54,50,88,-52,-57,-47,14,-18,-30,38,-38,-23,111,-14,-311,-60,-51,-59,-77,113,-96,52,-6,-178,-13,169,97,111,-43,-47,-40,-119,2,26,-193,63,-29,9,52,43,108,-104,-9,-169,-86,-291,-121,71,-71,55,-23,34,-363,-141,88,71,-11,53,-5,149,-55,-169,-5,0,37,-247,-258,-50,-10,-41,27,50,-65,71,-38,-52,-174,90,-197,402,-498,142,4,-165,-224,526,160,41,-56,-79,-117,228,-38,26,-50,201,-68,79,120,-76,-20,-102,8,-60,-149,-511,15,101,-130,-119,87,-13,47,-16,-30,6,40,17,46,41,-39,69,-7,-11,-8,22,37,-107,-34,23,68,40,-61,22,-65,35,-45,-8,-48,-29,-56,109,-3,-41,46,-23,-45,8,6,-152,-14,129,-67,77,-3,-154,-32,-26,-28,-37,0,29,-21,-3,43,17,-48,16,32,-100,40,-51,-93,12,-32,-48,-62,53,28,20,-21,-32,2,13,4,43,23,-12,-37,-54,-55,-62,53,3,73,-62,-34,57,-61,7,3,38,46,-33,-35,-31,42,23,42,48,54,55,59,-7,3,-68,38,6,42,33,48,0,48,21,43,16,38,9,55,-2,5,-38,61,-45,58,47,49,3,73,-10,44,-20,-54,-7,32,-128,-52,-52,28,90,15,-18,-5,66,-37,74,8,88,-10,54,-41,1,20,8,53,65,7,-38,-6,43,51,4,-5,-23,19,-85,-9,-29,-13,22,43,-86,26,-8,-1,32,-28,-9,36,-113,22,39,-42,42,-50,53,-41,52,-1,36,-45,32,2,34,-13,71,29,-95,-15,67,28,-47,42,71,-191,-60,-18,14,54,-37,21,-46,-14,-1,-30,26,-40,-1,-207,27,-52,-38,73,113,-2,228,-151,65,5,-159,-163,244,-185,-66,24,43,337,-200,-77,-303,-7,-56,-84,-311,-261,-5,-81,38,87,-35,195,-178,-2,-27,-193,-7,-36,-234,-272,187,-36,-222,340,210,110,-234,-62,48,-27,-882,-52,-211,27,-388,-73,-164,221,-58,-84,-98,18,-98,-76,143,-37,373,787,-99,204,291,-192,37,-96,32,-739,302,298,148,-3,502,132,-771,-4,-1572,-10,206,-58,-536,117,-46,8,7,26,3,376,-603,22,-44,-30,-39,-62,-3,-44,64,26,-127,137,4,372,-648,-49,-283,4,30,-42,-1,14,-191,4,-116,5,-5,-67,-49,-81,-50,-28,119,25,90,-213,-176,26,193,67,-705,-90,-266,-14,228,92,482,33,-123,58,-284,53,-1042,13,129,14,15,-132,-31,-62,-19,-44,-61,-339,-353,0,-837,-293,541,-617,3,2,272,-19,185,156,84,-105,373,-60,-1,353,-344,-36,494,-73,98,-61,31,210,-9,1,21,43,-7,-837,-452,-52,-289,-204,-507,70,8,-186,-7,-4,345,-95,112,-113,862,-1,-536,-272,-277,0,-137,3,-277,-41,-102,-44,-10,-66,-27,-79,-18,-374,-128,-95,649,-658,50,-57,-151,-61,-123,-11,142,173,-5,-9,-61,-61,61,-30,-239,-29,13,-3,4,21,-70,1,-21,40,-1,-33,-59,40,-160,-34,86,-55,-66,-38,7,26,-57,-55,-31,94,44,101,62,49,-17,-19,16,21,-109,-51,2,-5,67,-116,23,13,44,61,42,-20,-15,45,49,-39,-92,-498,-89,-122,-173,40,-204,-593,29,-650,-480,-11,-389,-606,525,-55,-54,-54,313,-50,392,56,-98,20,-60,6,-67,-244,416,-56,73,-805,-740,42,362,28,53,7,161,-89,-407,25,233,98,-105,-15,70,-36,60,10,134,-17,145,126,-23,35,-68,-63,13,127,139,9,337,-98,-75,255,-124,-69,311,-121,-707,432,240,-527,-276,-26,201,180,151,-6,53,-20,-491,0,-78,-146,-13,-2,-85,25,73,-74,66,-12,-3,-128,-100,-80,124,-152,-592,-18,-227,-467,-47,70,-592,4,-291,-300,-709,-23,19,-26,218,30,317,-345,-21,3,10,31,-18,-485,319,-59,-181,-659,-175,14,-263,-76,1277,-131,252,243,-972,-468,-19,-23,-305,918,-259,2,27,12,497,9,166,163,24,-2,-24,-53,-16,-305,-1888,-61,150,588,2,15,88,-120,-66,-48,-669,579,-164,-232,-21,32,113,731,-98,47,-292,-28,465,-80,-152,-25,-74,-14,-91,-128,-119,457,-51,-70,-100,205,-69,-25,31,-46,9,62,40,-36,40,-46,-19,37,-60,26,-1,6,2,-42,44,-50,19,37,-57,51,-34,-8,-27,54,21,-4,58,66,-79,21,-53,-136,-522,-62,-445,-101,-264,345,-1169,9,-258,-1945,-298,-88,36,-44,95,-51,-48,-153,70,10,51,29,85,199,-256,-45,-222,-977,-721,-619,521,-101,138,-24,-587,-1374,-496,113,542,-18,-267,-324,605,-59,-212,-58,1071,-36,-847,-118,-38,6,-30,53,-71,-567,-996,-41,99,-1485,-558,60,-17,4,-24,-66,47,-48,31,55,-36,58,51,3,38,-54,22,-30,54,42,-37,31,32,18,31,-29,-12,-10,-50,21,-6,36,32,49,12,29,10,-49,73,267,-96,-130,-71,12,-10,-70,-33,55,47,-33,69,57,-50,33,21,15,-61,-46,18,21,-47,6,-55,-91,119,-629,-83,-8,240,-40,-511,-3,110,231,-1099,-62,203,89,-149,-30,-922,-11,-179,-16,43,-226,-8,-81,36,-75,-120,-182,58,42,121,150,-240,-9,-71,-47,6,-54,77,39,18,-31,-57,26,-24,-26,-43,-20,72,-26,8,-23,7,80,23,55,-14,-55,44,-7,-57,58,19,-12,-10,-61,-8,-94,-60,-62,52,-134,-184,-50,-60,-59,63,314,42,-19,-26,-37,-14,36,-23,-140,29,-34,-19,-11,-1,-145,-59,-26,130,148,-90,-447,-122,-105,80,-29,-4,-255,22,-68,-180,-24,218,-124,166,1,-58,-38,-134,-24,-193,-257,-120,0,-68,-71,-41,19,223,-48,14,25,47,-3,-33,-460,150,-76,195,-259,140,-229,115,25,290,-315,-127,49,-225,-67,-671,-64,-50,81,-73,31,-47,-84,-54,-597,-552,-19,215,-250,-274,-27,-3,19,53,-20,-46,33,-57,65,-75,-32,11,-95,-45,-32,-64,9,-47,-31,48,-19,-39,12,37,19,-29,-40,113,-25,-64,-43,51,-56,11,25,-35,45,32,13,-154,35,-17,41,130,-18,-27,27,65,36,-44,-20,-37,17,24,12,-13,-10,-11,-20,23,-34,147,-109,49,18,26,-32,-58,41,20,-39,56,44,-16,-21,-42,39,70,-25,-52,6,10,-27,23,65,-14,-6,18,20,46,26,-17,-38,36,-43,-68,-45,11,7,-44,54,103,48,47,-58,36,9,-42,-96,38,1,-37,62,30,-46,-7,-53,11,-11,-32,14,28,43,-26,-48,17,-27,-19,41,-23,20,-36,45,22,-25,132,229,-37,26,27,111,70,-13,-64,-35,-1,-40,123,56,-43,51,-5,12,20,-13,137,6,16,-128,15,-48,-52,44,0,-43,4,-59,-14,-35,66,68,-127,-22,-14,59,27,-17,-101,-54,-124,18,-10,-9,-31,5,-17,78,-16,-56,-72,-155,-54,-70,-9,-17,136,-39,73,-10,165,63,112,-37,-13,-122,-127,32,-11,15,48,13,80,-149,-1,17,81,19,37,155,-196,33,-84,-81,47,-728,-33,-97,-78,-106,-448,874,-33,13,-99,-3,-354,29,143,-6,259,24,-210,-15,-299,17,-46,-62,-101,124,-51,-18,445,21,-890,-121,153,6,264,-63,-598,-84,526,211,61,-196,437,-28,-93,-1205,-32,2,27,-3,-168,33,-100,111,-88,-89,-60,4,28,-245,162,-18,-150,-25,-91,339,222,-262,372,-75,85,-1114,134,351,398,-54,-386,8,-87,-103,-72,-54,-141,-29,-555,235,11,-8,-59,-31,-52,-128,100,10,167,-909,-233,-324,124,-155,-61,66,82,46,-174,321,-769,-64,-301,-494,-401,-71,107,-46,132,-23,-211,0,-41,-39,7,19,-130,408,62,27,-457,-391,-97,-156,410,43,188,-11,-689,141,-497,77,25,26,346,-479,127,37,197,-64,-482,-24,-99,253,-19,-24,-1,52,-82,-338,-167,3,-454,60,260,566,730,-33,425,-43,-108,-98,-776,-116,-20,16,-17,32,-857,-6,474,15,-555,-77,-121,-502,-95,-34,-62,-101,37,42,-475,-12,-927,9,-299,18,23,-206,48,-51,116,-207,186,31,80,10,-397,-227,185,-3,-55,-17,-96,-46,35,-78,-77,-5,-63,-37,-91,-371,-45,-72,569,-742,-453,-98,-129,-116,-124,-48,80,76,-74,46,31,45,66,-73,-110,-68,25,35,-50,-84,34,16,-5,-38,-32,-56,36,0,-151,35,177,-166,-16,-59,51,50,-69,22,-15,60,105,75,-2,28,35,11,-59,-14,54,10,33,3,54,10,13,50,-47,27,56,89,-66,-30,-4,5,-61,587,96,-93,-722,44,453,-605,-468,-650,284,11,21,-1263,37,24,134,5,476,27,-175,-626,-60,2,33,-27,-44,-291,82,57,284,-1094,-707,192,172,33,279,-7,19,2,-259,145,236,21,-54,156,329,8,100,38,53,-33,83,-41,-59,-14,-67,35,-13,115,-211,4,-56,-349,52,133,585,-159,76,15,-106,-701,-22,239,345,0,-490,205,823,-55,-248,-17,-730,18,-220,141,17,28,1,102,28,-63,-109,-50,-202,-772,-197,-52,-873,-174,-117,-7,148,342,-1014,385,-534,-38,-906,-245,-450,-20,17,-18,-662,-46,10,-887,19,-13,-13,59,17,-532,258,-52,357,-301,304,-112,-428,-32,602,-12,-315,541,-287,-340,-22,13,547,588,-349,62,239,-22,35,-45,60,437,-17,26,-50,34,-35,-165,-1371,-11,119,665,-147,-363,783,-73,69,8,-76,220,-72,351,-166,30,-571,-90,378,-29,360,-39,71,-78,123,85,11,46,-16,-169,-31,294,6,19,-893,-500,204,36,44,0,25,34,-97,38,41,3,-12,24,-70,-76,25,-63,20,-24,-77,0,0,1,39,36,-35,25,-27,26,-36,31,-2,17,6,-64,135,-197,-114,-54,365,-368,52,507,-729,13,97,-1634,-325,-2,-104,11,38,21,-255,-223,-33,10,-48,-46,-18,219,-137,4,-404,-1092,-1040,-351,126,-103,-170,-33,-857,-892,577,832,367,38,-183,-44,421,-76,-352,-56,1007,-72,-806,515,-37,29,-36,-73,-74,-1037,-840,37,-19,-939,-359,67,-57,23,25,-24,-56,47,-42,17,-40,41,30,-31,45,-5,-2,37,28,20,-12,58,-67,5,-31,3,12,17,-5,-13,-26,37,-26,-59,-62,-3,35,50,164,46,-4,-52,21,-13,-15,-3,-20,-33,28,23,29,20,44,-30,-41,35,-53,-34,44,41,-14,-42,-63,-107,16,94,-1407,-61,85,-39,-241,254,-288,218,-507,-88,317,75,215,-102,-366,-54,128,16,55,-50,-109,14,-73,-82,-75,-215,37,-11,204,158,-525,16,-6,-63,-29,-26,60,67,-51,-7,56,61,-21,8,50,53,79,52,87,-55,-20,52,-13,23,51,23,21,-52,-56,-45,107,-12,12,-136,-117,-101,-63,-34,87,-283,-21,-67,-54,11,100,378,130,7,65,57,-98,-44,35,0,28,20,-63,29,-55,-144,41,68,70,93,-67,44,-200,-58,-239,-34,-171,-86,-120,-224,-104,-32,12,124,-102,15,167,47,143,-60,35,-426,55,-3,-65,-46,-5,43,37,36,145,6,53,-744,-104,-502,354,-56,-75,162,-517,-38,-71,-1,114,-88,-1,-16,141,-76,-513,-64,-468,-137,-78,-23,-72,-86,-102,-445,557,16,118,82,385,-11,-77,47,15,-5,-28,0,-79,-5,59,-21,20,-70,-26,-65,-24,10,24,36,-31,-55,-63,-59,-8,1,-66,62,96,-43,-39,-41,63,-67,53,37,-49,-18,-39,-20,-204,-6,-39,-31,116,60,-33,-15,83,-23,-66,-31,41,-58,60,-6,-43,12,-69,44,67,-37,37,-52,68,49,-47,-30,-56,3,28,2,-2,6,18,-56,-74,-41,-27,61,36,-57,47,55,43,3,-49,48,30,-21,-64,-75,-26,-39,-28,23,29,3,-44,14,19,-12,102,39,74,-1,38,59,-15,5,25,-37,-58,-20,-81,35,14,0,25,45,-53,-47,-21,36,-33,5,33,56,3,-120,-46,7,1,48,42,1,33,148,-63,7,65,16,133,34,35,51,80,28,179,99,30,-42,31,15,-52,26,12,4,59,-76,166,-46,36,-29,-29,7,-82,41,51,-40,39,32,-132,12,-37,-30,84,76,-9,-38,-46,-30,-4,-29,-23,-18,16,-9,73,-13,17,-48,19,39,-12,-50,114,-23,-34,152,74,63,45,45,-43,-211,-112,-44,57,-51,1,-13,50,-121,71,15,91,49,13,172,-200,35,82,-139,23,-251,-57,-103,-389,-117,117,-393,259,437,-87,-44,-1227,-132,523,-66,691,-76,-187,3,-113,-82,-81,-15,-8,-145,29,188,-85,-75,275,18,506,-291,152,-15,-691,-124,681,-240,319,-504,138,-79,335,-843,-3213,13,57,-47,-291,-10,681,-455,-85,0,-20,-100,3,-568,-454,-100,537,-140,405,328,-1168,-199,70,-104,206,-991,-1,47,138,-50,113,186,-202,-47,-193,-40,139,-11,419,-38,-58,-20,-19,-73,-20,-311,169,-55,156,-774,-104,-141,160,-53,17,-17,-227,77,426,198,-45,-14,-2304,-602,-336,-43,-174,0,131,15,-24,-55,-2,-65,-43,-126,-106,901,-90,-11,-287,-738,122,-386,-39,34,-183,-52,43,695,-272,506,-463,27,-34,-115,12,27,59,-40,430,-53,-681,-502,0,-34,-48,-63,-132,28,-363,19,-489,-358,-170,-180,-222,-42,427,17,-284,-752,421,-307,-798,19,-410,21,-716,-17,366,-50,36,4,127,-445,-40,-40,-22,-35,23,0,-711,-13,-1101,-377,-243,-155,-56,-141,-16,-32,-104,-223,-364,-255,-568,-16,931,-225,424,-55,53,-24,29,-8,-64,222,-100,37,-61,-82,-67,-380,-189,-53,436,-278,-622,-75,-66,-64,-10,47,145,132,-160,55,0,2,57,-114,-140,-17,-38,-62,65,40,-97,-7,43,-36,33,-18,-37,92,-42,-14,155,-184,16,-96,-6,1,-52,53,-62,-20,84,-1,47,83,57,-58,-36,-26,-21,-4,10,43,-74,-7,-24,39,-14,-49,29,-42,57,-37,46,-23,-43,165,-188,-17,-853,-65,-146,-1278,585,-284,17,-6,913,-1060,22,3,107,42,-520,-65,-105,-848,-41,34,-54,-8,-101,-165,-379,-14,-501,-795,-520,-117,186,12,191,36,-144,-1,-255,184,83,66,22,18,363,-65,-76,40,-9,-38,-6,60,-12,-55,4,15,14,35,-391,-23,-132,-84,50,-577,401,-74,-202,-12,-186,156,-714,-7,68,-59,-719,-54,708,-41,-910,-58,-401,-1,933,-696,-64,-45,7,-57,4,264,-222,-54,175,-1053,-50,-518,-626,-185,-146,-11,-568,234,-1189,254,-478,-30,-546,-157,-1,-47,-11,15,-756,45,568,-1457,-45,-4,-43,-40,4,-120,308,-14,-184,-210,581,213,-480,-88,169,-33,-382,-443,12,-295,-180,-37,834,218,-747,-25,-10,-47,142,48,-161,-181,-34,-3,-31,-37,20,-17,-724,-24,-115,561,-235,-15,337,-211,59,-17,16,301,640,-202,-379,-1,-111,-36,45,-27,732,-40,-167,-30,441,-25,-5,38,-49,15,-11,475,-395,-93,251,-10,76,58,-43,-1,7,-31,-59,-41,29,45,12,1,0,-40,12,-57,-43,21,-49,13,22,-46,-49,15,24,59,-21,88,-13,53,-6,13,56,-17,107,-243,-361,-86,28,-727,12,179,-1152,-58,47,-616,-221,27,272,46,166,-23,-440,116,17,3,57,-86,-36,316,-483,-37,-248,-1365,-764,-380,546,-64,3,-74,-1177,-627,-66,126,-403,-80,213,281,-186,-3,138,-18,733,-64,-497,-36,-72,-23,11,-72,-9,-647,-687,0,-593,-1557,-866,-7,-54,45,18,35,47,36,-12,31,-11,-46,-28,-6,-43,-18,21,-9,-74,-53,-49,-7,-21,22,-41,28,32,34,48,18,-16,17,-48,-25,-37,15,-76,-2,127,-23,-107,-79,68,8,-38,18,84,-55,-23,-57,140,-9,-53,12,-60,0,5,-36,10,17,41,-27,-2,-55,68,270,-1737,-85,14,20,116,-287,211,469,-299,-48,-231,-69,29,-110,-209,-6,54,-117,-282,82,-11,-4,25,-173,-45,-284,124,0,44,-168,-600,-26,-72,-53,-37,-3,4,-15,65,81,-56,47,69,30,93,59,-31,-50,5,40,23,-19,0,23,-30,53,2,-47,-68,-9,53,36,2,-146,-83,-71,54,-111,98,-219,61,-100,-20,13,175,258,59,70,63,15,-80,54,-1,20,-42,-37,34,20,-22,-25,22,1,100,19,-96,35,53,-139,-47,-59,-160,-273,-95,23,-71,6,-168,-310,218,-23,275,-34,177,-88,-133,-517,-51,-73,-61,19,3,194,-20,-45,-21,-458,9,-342,30,-569,203,-34,-613,-17,-70,-218,114,-51,329,33,-107,-49,968,15,-145,19,-939,-29,21,-110,-46,-95,-87,-408,1125,10,-90,486,250,-43,17,-7,37,-8,-10,65,-48,50,55,-18,96,-3,-59,26,44,-28,12,-50,-13,-78,-46,-39,43,-46,-34,69,6,-19,9,-8,23,66,73,12,4,54,-54,40,-216,22,37,-61,68,-57,9,-52,33,50,-13,-60,-16,-48,14,-4,-32,51,15,-95,-18,49,32,-77,46,-33,67,28,-47,-30,-59,52,-35,-1,-36,8,13,-2,8,45,38,-59,-56,-1,24,-3,19,38,-38,-31,-53,0,31,-8,13,60,32,33,-43,-45,-16,19,13,-56,58,-51,45,-43,-47,21,6,31,-28,-12,4,-9,-48,-9,-60,-46,-3,32,-48,14,-86,-22,-39,-17,-45,-111,-67,-43,13,-28,7,-16,36,106,-139,-55,78,145,58,-28,-42,-44,64,-60,136,104,6,63,36,31,24,-22,42,-54,110,-202,-89,-41,-68,-22,-34,20,-32,-91,-5,-5,-1,-66,-64,-49,45,-4,-36,23,28,24,10,-17,43,-10,-43,-58,11,79,69,29,-39,-27,-68,-14,-78,-14,171,2,21,127,25,84,48,7,97,-246,-85,-6,-51,-37,64,43,-39,39,7,-22,73,-22,-4,27,-245,-55,61,37,48,-323,-219,-178,-353,-112,78,8,-242,245,-45,-33,-117,-210,117,0,537,28,122,-36,-110,-129,-37,-7,-32,-24,-65,77,-385,-30,653,-393,388,-23,227,-134,-288,-95,-225,-413,-1199,-433,46,-20,522,-558,-3012,-84,704,-40,536,-44,1124,-634,-63,-10,26,-23,-27,-521,-492,-80,-570,-130,393,241,-255,-226,-108,13,-704,-789,273,-1163,-744,-44,-205,-312,-492,-12,-336,-33,42,16,-279,-201,18,-30,-55,-29,61,-102,114,1,-628,-274,-159,-23,52,-65,196,-24,545,-837,761,90,392,12,-340,-814,-65,-120,-321,-15,-388,-49,220,-210,21,-99,10,-157,-5,440,-128,-85,1634,-26,198,-459,-590,76,43,-62,-86,15,396,159,-328,-105,-931,344,356,-26,522,13,750,-55,-258,-590,-67,-70,23,-32,-94,244,-680,-50,491,-356,79,209,-204,-144,504,13,-294,-1609,149,-472,-772,-55,-703,-624,-1232,21,403,-45,225,38,518,40,24,51,-4,-11,-65,-48,-336,9,-352,-66,-217,15,-189,-157,-23,6,-719,295,-964,-131,-836,-1,605,271,71,18,169,-11,-104,-66,-430,241,-48,-100,-60,-101,-73,-763,113,-31,-1370,-692,-794,-8,-6,-87,49,-4,43,-99,60,-19,75,10,11,-170,-155,-36,27,2,116,-44,-161,61,18,-64,4,26,-21,97,-134,-29,31,21,-21,-82,59,-20,-65,-37,50,63,-8,60,32,1,-28,49,-31,67,27,0,-32,-42,17,-32,-18,55,45,-40,-36,-2,-98,-10,-18,45,-20,3,-1154,-118,334,14,-268,294,158,22,-439,-56,352,-61,-297,-66,68,-57,-219,50,-890,44,-4,-38,5,-21,-15,282,-995,-15,241,-1458,-1034,41,-76,79,83,-16,-93,128,-216,124,-29,-9,357,-47,95,-38,4,-48,-123,-40,-3,150,-13,-12,4,-71,-9,60,-204,-55,-52,252,36,-644,357,10,-290,-3,-433,360,246,53,149,-72,-363,-1064,-173,4,-203,-38,-1040,4,327,-1239,-11,-14,-50,-29,-82,423,-339,32,168,-601,-200,-84,-951,-95,313,-55,-743,422,457,327,-177,-51,-1221,-127,366,26,59,32,-1067,28,378,-1133,-6,-7,42,48,-58,-365,261,-1,-300,214,-123,805,-635,-9,-248,-90,-558,-747,-655,162,-409,-50,-602,-54,-485,-16,-237,-25,212,-16,-663,327,-29,-4,-24,-29,-68,304,-145,53,-81,90,-405,-99,15,-154,227,11,194,587,-385,-490,-274,-41,-59,161,259,16,-224,-40,-217,-69,204,-179,-55,-17,-43,-68,-152,390,-107,-23,703,146,90,17,-43,-50,5,-25,-6,-8,-38,-54,-8,-39,-9,32,-3,-26,74,17,-82,-20,68,38,-60,8,-66,66,-39,36,4,-13,-64,-28,70,76,124,-156,-154,2,-160,-121,7,79,-1000,35,33,-264,-355,-2,563,-22,283,-54,109,-139,-26,-52,-33,-56,-155,-6,-83,-5,304,-589,-117,-48,284,-19,18,-95,-108,-1069,-176,55,-633,-42,-349,261,-124,-46,-208,59,-230,12,288,-524,8,-57,-43,-52,-23,-630,1116,51,-384,-1076,-694,-14,-45,-15,30,-57,8,-28,24,-42,25,51,48,-35,-53,-27,58,-52,20,-39,-12,67,-41,-56,-6,-19,-51,-49,-65,48,4,33,34,-10,-57,-91,0,-6,56,-36,-111,-1,43,-28,-72,57,53,-37,82,60,38,0,-30,-60,-53,34,47,-19,56,-8,69,22,38,-46,24,363,-2087,-14,-463,-38,187,539,-449,517,-468,7,-176,212,65,-19,-30,-2,127,-21,219,356,-32,-16,-56,-71,38,4,-19,23,-33,32,-240,-62,-64,-76,-33,17,-7,53,44,122,27,-140,-19,2,69,9,90,17,51,17,17,44,65,-55,-62,-17,-49,-16,-34,-27,32,0,0,-226,-78,-196,-117,-39,131,-231,85,-113,-53,25,198,161,-64,18,-24,-7,-49,40,-12,-62,31,-34,26,-9,21,-118,-86,-16,-69,-98,-196,135,79,-104,86,-57,-127,-298,-139,34,-53,40,-6,-46,156,-81,126,-31,-14,-39,143,-238,-7,-44,11,-32,-41,-20,-184,13,-83,-423,68,79,-69,-545,440,-107,-761,280,-97,-68,27,15,13,172,0,40,777,15,396,-92,-915,-127,-11,-54,-69,31,-152,120,986,-97,-268,125,-63,41,24,1,-73,30,-13,-44,-58,-6,5,-39,92,-49,25,27,12,36,-109,-27,-30,47,3,18,12,-5,-21,6,-55,49,-16,-23,6,47,92,81,58,6,32,37,-228,-74,49,-17,71,-43,-65,14,-1,-11,-53,36,-20,-9,16,-8,-13,24,-53,-85,-69,-36,82,-90,53,-25,-54,-68,45,-45,51,-55,52,32,-23,-23,1,-21,61,21,33,12,-8,47,22,-53,0,24,-10,38,-16,15,-53,49,-11,35,25,-6,0,-37,-6,25,31,-55,110,-46,-34,58,33,-3,58,33,5,32,-3,42,-36,-64,58,28,-4,-68,12,-42,9,46,0,73,1,-18,-100,-32,92,5,122,56,74,34,-68,45,63,168,44,-2,-1,10,38,-9,135,26,11,0,15,-52,7,-67,134,-51,91,-122,-9,5,38,22,-20,29,7,27,79,64,-20,-77,-108,14,-4,-17,63,-62,1,22,-47,22,-7,-9,31,-6,52,109,6,38,9,32,47,-40,-1,-38,137,24,-33,44,8,63,-97,-62,83,-150,-181,33,-10,-5,-101,-44,55,9,-28,9,47,-39,-51,48,-2,23,158,-17,117,-314,-85,-157,-431,-38,249,317,-608,77,98,-58,166,277,722,-103,839,-13,78,-85,-3,-213,-29,1,-46,0,-41,148,389,-9,285,-586,183,-83,262,-152,264,-108,-530,-616,710,-381,-287,-9,-579,-1206,-1504,-81,319,18,576,-100,398,-253,-75,21,-60,20,-97,-392,-110,19,-653,-630,175,113,6,-227,619,-6,-383,-210,138,-705,-754,32,-511,-136,-166,-1,-840,47,-285,-16,-1043,135,20,-40,-33,-6,-97,730,-633,1,-168,-137,-384,-152,148,-75,103,-17,208,840,-1116,19,346,-30,1012,129,-146,-54,207,8,-120,-50,67,6,32,-51,-61,-153,-2,-287,135,-5,155,917,344,-57,-836,30,335,-40,228,396,-282,292,-123,-75,-218,-336,129,-69,190,4,160,-52,-182,-475,-15,-83,-54,25,-24,-47,-25,34,413,111,133,-766,-41,-146,313,8,-138,307,226,-446,282,22,-313,-241,-11,5,132,36,-362,25,764,-17,-60,-45,12,-46,19,-1347,-309,-60,83,-489,-337,-119,-88,-231,154,1,-199,-35,1009,-43,-505,-17,64,-132,-418,-35,48,-65,292,-27,11,60,-94,-56,-107,-198,-53,-102,-300,-30,-904,-341,-344,82,4,-137,93,-54,94,-46,46,110,22,0,-144,-48,-146,39,-25,-15,-33,19,-38,78,12,2,-32,27,-57,54,-23,39,-39,86,-88,-53,-8,100,-11,-64,41,-16,35,9,-29,96,99,-26,-22,-21,-12,59,81,55,-24,5,26,52,61,45,28,-51,-9,44,-17,-22,52,190,474,-158,548,10,109,-1554,-191,-280,-741,-43,-10,-255,-189,-5,-456,33,-158,24,293,-405,-6,3,11,-38,-67,-363,-395,-25,-483,-1136,-174,223,-83,56,54,-49,-279,-121,104,146,270,57,191,-95,-7,-2,63,22,-112,-64,50,185,4,27,-26,17,2,90,-302,-52,49,287,-597,-674,359,114,179,-9,7,-36,259,-594,940,-113,129,-73,-38,-68,-566,-42,-15,-73,205,-880,31,-29,22,-27,-52,818,-102,47,496,597,279,-318,-614,-72,160,24,265,480,363,-46,446,-60,-842,-171,-267,41,84,-44,-702,25,-293,-470,-54,-49,21,-20,-40,-373,35,-13,230,798,-53,787,-1544,-7,-466,-31,-228,-1091,-271,-130,-86,-92,-1141,-319,728,80,-110,8,-960,13,-578,307,75,16,15,-3,43,140,-368,27,-51,-551,-85,59,-200,-151,-151,-47,165,-175,-113,-258,-42,-38,-45,12,349,-101,-448,16,-611,-64,341,177,28,48,4,-61,-54,122,-196,-54,572,58,54,-56,-54,52,20,11,-4,-37,-19,54,25,52,29,3,-56,39,0,68,-39,-23,14,-46,-39,-52,63,-15,40,-63,-27,-36,-30,47,19,-30,-99,-154,-147,4,-457,157,-291,88,-1188,40,-183,-151,-332,-50,549,-10,115,-76,124,-306,-18,-62,-14,-21,-76,-254,-707,-32,229,189,89,174,107,-164,-995,-14,416,-444,-671,-944,45,-56,347,8,-123,-90,101,-44,-960,29,-790,-649,-11,-33,-51,-22,-67,-177,40,-28,-503,-812,104,0,-9,58,-12,41,-33,-50,2,-5,59,22,39,71,-54,-26,2,15,-13,-26,-16,55,-21,-43,-57,41,29,-31,47,5,-74,23,-33,-29,-62,-46,-45,1,25,-77,-18,92,61,19,-61,66,130,-2,96,63,61,-29,-59,50,33,-49,-65,-68,7,-7,123,7,-107,-42,17,373,-2102,48,-204,-104,434,-181,217,197,-596,-81,-246,371,-96,-110,40,-22,-180,18,-146,39,-42,-26,-102,-53,106,190,120,2,-356,-25,16,37,-6,-47,-71,-38,34,3,86,67,-65,25,7,1,88,-36,17,-39,-18,-23,25,54,1,-21,12,-51,24,13,-5,4,9,41,23,-298,-5,-92,-120,-84,145,-310,112,-136,-83,-10,169,-5,-103,2,-41,10,-204,8,-125,-101,-7,-31,5,11,5,-14,-155,15,-214,-29,-180,5,41,-148,48,-40,48,-535,-65,124,-86,-60,44,-35,183,33,-80,20,-73,-30,-168,-218,-28,-55,-4,49,-8,12,4,1,-30,-287,47,-105,171,-544,259,34,-47,-655,497,-47,2,-79,-54,89,115,-3,-277,18,536,-2,-312,109,-54,-19,-137,30,-168,199,246,-34,-316,-116,-570,82,-19,-20,0,20,-62,-8,-9,40,34,-17,73,-23,-29,15,36,22,-127,-50,-93,104,-64,-1,-53,32,3,-72,34,-7,21,31,12,45,21,45,24,-2,-31,-2,-245,-48,-32,-2,10,-90,-10,45,-16,32,50,-22,98,-61,18,6,-54,10,26,-88,32,13,81,-177,137,12,19,34,62,-5,-7,-76,-60,50,-45,38,7,-1,15,7,-16,-24,-38,31,-20,-8,25,-27,-45,44,34,61,12,-15,1,-40,14,-60,-71,-27,37,23,75,93,97,25,-5,-24,-57,-42,30,17,-41,-48,-34,-55,68,15,-7,-1,-60,-16,-12,58,24,26,-20,-55,68,6,20,53,104,-45,-19,-7,53,118,-62,-55,91,16,30,9,-21,56,145,-43,89,91,2,-2,17,-56,0,24,91,-41,6,-86,-20,-48,1,-42,-64,-42,-45,6,34,23,8,19,3,-56,-12,-31,47,45,-118,-24,-102,-80,9,-49,5,29,-59,47,-17,31,-5,11,-51,26,-10,-20,158,-33,-60,89,-81,11,58,-40,97,-11,-137,-25,2,-20,-101,-49,-13,-3,-63,1,-28,5,-56,-110,34,29,-83,7,230,-51,430,-255,-179,14,194,497,428,-41,263,-39,93,34,-101,-4,338,25,123,-55,-103,-40,-80,-64,12,78,23,-136,112,-83,81,-623,-280,-146,33,-231,220,15,71,460,-44,24,-535,-74,84,-1121,364,12,-222,-49,156,37,-28,217,-8,-99,-40,-33,-94,-54,109,-6,108,281,-69,-456,4,-71,-365,-34,-166,-11,45,17,-1134,11,43,540,-354,-8,-1719,-35,-941,-96,347,-91,-71,2,-13,46,-75,82,-38,-56,-80,501,-562,241,-14,-88,-15,-2,144,-272,97,53,106,-20,-150,-40,39,-30,25,-32,-27,-77,40,-29,-63,-36,-46,-164,-69,-47,-154,-47,-45,-351,80,-243,-132,84,-649,-106,-498,-535,-38,-1116,-316,10,-190,-454,-344,12,-393,13,383,-65,-100,40,27,23,-63,123,37,-360,5,16,-65,-472,-161,51,-253,-2,-815,32,-106,245,-454,-205,724,18,-171,139,-126,-15,96,-28,532,-49,190,775,-52,33,51,-26,-63,-146,-118,-49,145,70,186,87,101,3,-241,-23,-167,369,111,79,206,22,250,-241,233,25,72,-40,-249,-30,91,-44,9,20,15,-134,23,101,143,-19,-35,46,225,2,-139,-3,-76,16,166,112,-56,-76,-14,17,106,-81,-157,-62,25,6,36,-44,18,-28,2,-50,25,-42,21,-45,-57,0,88,-164,22,-37,75,46,21,-2,6,105,43,113,1,6,0,55,-74,-38,-9,-10,-71,40,-24,-9,33,120,39,-12,43,-3,-30,50,56,25,-114,-844,163,17,-199,-15,63,-1045,-499,462,-312,32,235,-1152,-173,-39,97,-41,-142,-82,484,-292,44,19,-1,-2,30,-142,-561,30,603,-921,-1134,216,-113,117,-58,51,150,61,-46,-97,35,-16,0,174,302,21,62,-23,-71,-64,116,-36,-44,20,-64,-3,-95,182,54,33,222,-429,-46,165,471,-156,287,-13,-543,335,-232,-1050,-799,-72,198,498,49,-87,279,-47,275,-67,-429,-385,14,38,-46,-104,90,-139,338,-2,-318,-649,-113,160,28,-93,-650,27,-84,190,-502,-730,-1021,25,-880,-823,56,23,-14,-13,-50,-50,592,419,0,-30,-27,38,130,-181,-1005,-53,-444,-1068,73,-729,109,-161,959,-130,196,412,-536,-135,-42,-5,442,858,116,-39,776,-56,577,-7,833,230,-55,29,8,-48,49,-1257,-1340,20,323,589,-231,391,-38,-43,-50,-29,-163,-511,8,-166,259,31,-513,242,-558,18,-371,-5,73,4,-278,240,62,44,-21,-76,-109,34,-412,-71,41,354,-151,7,34,27,6,2,16,26,14,35,7,-29,0,9,57,19,-81,-51,2,22,-61,50,15,19,-50,36,15,22,-3,34,1,-35,-20,-142,-331,-96,-173,-55,-70,523,-148,-174,-487,8,-37,-1661,144,-19,-73,-22,192,-28,-263,-6,9,-74,18,21,-53,9,-18,-44,103,-1365,-816,-400,241,-52,252,-25,-723,-707,-958,-104,290,-54,-345,-377,348,-78,102,11,784,32,310,7,36,3,-52,-45,-18,-72,-1329,-15,141,-1350,529,2,48,19,-9,0,58,-13,11,-11,-25,-52,-66,48,-4,-52,-23,-25,13,-27,11,43,35,-48,51,-63,52,36,56,-18,-21,23,27,-66,-82,-48,25,-3,-37,119,30,-33,-63,-63,47,3,79,9,49,-10,-87,49,82,-16,-50,63,-27,-59,20,-71,-71,7,-27,-129,11,-501,-182,-66,121,-51,119,-730,31,46,46,-51,-240,-360,-421,-132,-343,19,-368,15,297,-18,-84,-100,-67,-40,-121,-106,137,-46,105,67,319,33,-38,28,-104,19,53,42,-7,32,-28,76,-13,-106,14,-21,42,20,61,42,28,-5,5,-13,-19,-2,1,-27,-27,-41,75,79,-122,-240,2,-19,-137,14,165,-84,-279,42,-23,-45,57,364,54,48,46,61,37,53,-33,-390,-31,-62,-9,-49,-39,-26,-97,-7,207,190,-167,-331,-131,-73,168,-29,-37,-345,40,-140,-26,-6,74,-96,-35,0,-84,37,-237,-29,-191,-44,-63,-29,-75,-61,-91,115,163,8,-5,35,38,167,21,-254,-24,-15,168,-239,-169,-175,-414,-26,301,-200,-9,42,-396,21,-231,-76,650,135,-42,22,1,-131,-80,195,-518,-18,-18,-237,-253,49,-24,46,15,-41,-5,0,-16,-10,-24,-60,-10,-152,-70,7,-43,3,4,21,20,-1,21,34,-49,-5,15,4,57,-44,-64,-14,9,-54,29,-15,46,21,-55,-15,-71,44,167,-3,19,43,-98,16,-27,50,-3,-30,39,-49,-40,-33,-48,42,41,40,57,35,22,30,51,35,-7,58,-6,-7,28,-36,-38,43,-16,-15,-26,-31,-32,-33,-23,39,-20,45,-16,-20,31,-12,-52,-11,36,42,-14,-63,-51,49,20,-45,-32,0,52,40,10,-36,28,-1,34,56,57,-32,-38,-43,26,46,62,37,29,-49,-61,57,1,57,-28,-21,-42,-21,55,-11,-125,80,-15,-39,81,-50,-50,83,20,116,-41,21,3,-40,95,-30,-38,12,-40,-41,68,34,33,63,15,-50,26,8,-19,7,1,-146,117,56,-23,-7,19,2,69,-41,25,-49,18,-52,-95,30,-10,60,-86,49,-27,-19,-19,-21,35,-23,-2,-43,53,68,45,1,-9,-98,-24,16,-136,-70,21,-58,179,-37,163,-19,74,-58,161,-88,-84,-4,-222,-45,173,12,-73,-89,54,-31,70,2,62,4,-18,-59,-96,5,58,-732,-7,-151,-269,-65,392,-408,366,52,69,38,-1041,232,-626,6,-215,12,271,-90,11,334,-151,-80,28,-16,75,359,91,-16,-311,-74,198,-75,-164,-11,-282,-2,57,-8,-100,-154,139,-46,-29,-574,-1215,3,-121,9,-523,-42,-619,320,-137,-16,-111,-59,-51,-125,74,-26,-279,224,-94,597,363,-118,52,-74,113,111,-127,449,394,-101,-139,-311,-775,-72,316,-24,57,-15,-296,88,-97,-29,-21,-73,-95,-230,-522,-37,-463,-409,-1310,77,-216,-142,120,35,260,-484,11,-90,-33,17,-229,206,187,-65,-62,6,197,-34,-101,29,-17,17,-65,-47,25,-32,15,-83,202,-87,-155,63,207,108,-955,-59,-157,191,113,-353,18,-24,-110,-426,-378,-26,75,-63,-260,-14,-190,-80,-5,-29,41,160,-15,-264,392,-51,-898,-116,62,582,-812,-50,-585,0,-260,-147,-574,119,410,-7,56,394,-492,9,38,22,-768,32,-403,-60,-41,-59,46,-27,-80,-803,312,27,-367,377,175,275,70,-38,-48,-58,-99,45,10,-340,-258,-10,804,-518,-22,-16,220,10,-88,34,385,-14,-26,-44,-77,-53,-96,104,34,-73,305,114,73,-26,-205,-7,-123,9,80,31,-25,-6,-58,-17,113,-114,-67,-59,26,-35,18,24,67,-59,-28,-25,43,37,-16,-54,-144,3,192,-267,59,-10,-50,22,-45,50,17,-5,6,-6,10,92,46,-36,-105,-62,3,-47,-28,-57,-7,24,4,98,55,-58,27,59,27,-7,108,0,73,598,540,55,-910,-13,-171,-538,-107,-134,296,2,-240,-1454,-230,-40,-284,59,4,-53,239,-856,-54,13,38,-43,-60,-273,13,-10,-498,-1053,-532,-132,-96,79,79,50,-88,-24,-220,-115,-20,33,-23,-18,449,-10,-11,31,-161,2,-1,-143,-1,14,53,34,-54,97,-313,-57,131,-450,1,-53,589,-78,-399,-86,386,-317,44,-645,-724,16,-109,35,863,-6,-320,-77,-517,-24,-220,-233,-41,-54,39,118,21,109,-24,25,108,-417,-78,-142,-232,-169,-423,-36,-265,505,-1363,-493,159,3,-947,-421,555,-50,-223,0,-572,-62,-277,666,-44,35,18,44,-43,-328,-514,-21,91,-1303,-207,-423,-623,-104,248,-30,-222,835,-212,-227,-22,4,902,387,96,-19,788,-4,378,51,662,139,19,-14,0,-33,-34,-1185,-891,-9,124,634,-384,-133,-44,-91,59,-45,667,-844,69,386,240,-42,-406,232,124,-53,-301,-58,292,-16,-93,183,-52,-20,-24,38,-3,226,202,-22,-82,11,-56,-9,-53,56,-13,12,-55,-33,62,-14,-68,67,-14,-28,11,52,-3,16,5,56,-75,43,13,-58,52,62,-19,43,-22,-38,-29,-6,-24,-152,-142,-146,-153,-6,574,-114,-27,-212,-630,23,249,-598,114,-41,-456,-24,139,44,-213,48,6,-69,-37,20,-45,-275,-123,49,-137,-1254,-942,-1384,174,-23,-283,-89,-1447,-1132,237,159,168,16,192,-401,-733,-28,193,37,322,-65,-194,-219,-27,-32,-68,-3,-50,-288,-1064,0,-370,-715,397,55,26,56,-43,-44,21,-19,15,23,44,-13,-49,-39,41,13,36,16,44,-34,-27,4,0,-25,41,4,5,-55,36,-56,-34,6,49,-21,44,6,-84,23,4,44,-6,-27,-30,-46,55,-75,29,61,-4,61,-69,23,79,9,-45,-13,54,-13,-4,-7,-105,-65,16,-94,31,48,-1250,3,-79,-4,111,85,-136,27,-602,-13,-248,-438,106,-89,396,-26,39,-65,-12,-30,0,-99,-81,-40,-30,176,-44,28,165,70,-279,-18,-86,-77,-27,52,39,73,-36,24,-22,38,63,31,46,-45,-46,-50,-14,-10,-5,91,57,-6,-28,31,57,52,-22,57,36,9,-120,-111,-112,-129,-7,-103,157,-176,-165,-63,-50,39,29,174,25,-11,-7,-31,-38,-65,121,-193,7,-32,39,40,-50,-85,-38,40,137,156,13,-42,-224,-27,49,-72,-112,-200,-161,-20,17,5,-130,202,-252,-41,10,-28,60,-12,100,-295,-24,-1,11,-57,-18,178,58,-66,127,-116,-11,-321,121,-327,-35,-96,-287,289,-160,36,-349,30,-234,-220,12,-11,-152,-70,-872,-29,429,139,13,-40,-23,-117,-70,518,2,16,188,-16,273,34,-18,18,55,-13,-47,29,55,-18,57,0,31,16,-3,-64,41,-20,-19,-67,18,67,-22,3,-70,-27,-45,-39,92,-67,-24,3,105,-63,12,-65,49,-63,-52,-2,69,85,96,-53,111,104,-57,45,-8,-16,-105,20,58,-12,48,45,-2,8,-21,47,-34,-13,-12,112,140,7,51,-58,-11,4,6,5,25,52,-14,3,-20,-52,-10,24,77,20,-14,40,17,-7,29,-14,-43,15,39,-7,17,-10,-4,5,-20,-22,-14,-31,1,-58,16,-11,75,-30,-12,-60,20,16,-10,-31,-43,22,-46,2,46,22,-46,-27,36,33,-42,-67,-86,18,-26,-16,46,-86,24,40,97,-14,-58,54,5,20,-83,-37,76,-116,-11,-29,-52,35,-54,-39,113,121,-66,-15,-34,-42,-26,-74,-56,11,52,-173,118,65,-15,-57,2,11,65,47,39,-7,-73,-15,-51,-93,-21,25,-22,11,27,23,-133,47,22,52,-44,-39,21,8,-11,-23,-17,-6,-64,-111,-111,46,93,-45,155,-43,40,-68,159,-28,-46,-71,-66,49,7,-49,-108,-14,-39,-210,-12,-26,54,9,-19,13,0,-25,36,-161,38,-449,-297,-95,120,-70,428,-1949,-9,-20,-213,10,289,-214,31,-75,-114,30,-361,20,0,236,-82,-82,-32,-92,75,270,175,16,-673,215,66,-591,214,-99,183,-27,-155,-6,15,-144,174,-26,210,-1125,-2988,-93,-318,24,-1009,8,-351,8,-45,-80,-79,-58,-69,46,-770,-46,364,-217,287,-122,-715,-190,-160,-14,34,320,94,186,542,8,460,459,-14,-93,381,19,80,17,111,126,0,-47,-45,-66,16,-1133,-284,49,425,-981,-484,36,-187,-140,211,-13,230,-125,79,276,-618,9,467,223,-27,-21,-135,-70,711,-88,-149,-33,-70,-58,-78,-35,19,-450,110,11,-1789,408,12,-265,-819,98,-820,-35,497,-834,0,241,-27,-12,213,-537,-340,-61,517,-66,-161,-38,-376,38,64,-72,52,-96,92,787,97,-9,-706,318,0,926,-869,-108,-706,9,250,-464,465,258,-565,-23,170,604,-493,54,143,64,-184,7,-544,-317,-28,-32,24,-60,1,-210,7,-35,-485,-629,-73,96,89,-83,101,-1,-966,-74,-415,-335,-133,2,756,-669,45,11,210,-31,340,-15,316,-134,3,-7,-12,-196,-65,227,-126,11,1134,-708,-395,-54,-136,-14,-130,5,49,58,-77,-91,-12,-6,81,-131,-58,30,-28,-47,74,-62,21,7,-27,20,29,-17,6,-9,-87,-16,160,-224,115,-13,28,22,-49,-42,24,30,39,23,5,29,-34,6,-96,-66,-6,-14,-98,-48,-13,-2,53,30,65,-53,-50,26,60,-39,75,29,-12,-510,-301,80,-1198,-11,-810,-1066,436,-943,273,18,619,-880,-148,-34,-174,-15,-1179,-41,381,-1161,4,39,-15,-1,-58,-615,57,-65,-5,-370,-421,-92,-139,-19,78,-36,110,369,-87,84,-429,-4,118,88,189,5,31,-18,-191,-65,-86,-4,-22,-32,-3,-61,-30,1,-129,8,-238,-92,-16,536,103,-90,-346,-39,-556,103,-264,-520,-63,-14,391,-548,829,-9,-747,-14,-43,-79,65,291,-25,4,-34,-133,-94,4,223,19,-165,141,-208,-29,-289,-168,-123,-1,-1138,702,-797,-580,-621,-44,139,-527,503,-14,-132,-25,-862,-1,-20,508,39,0,36,-12,-7,768,-193,-64,-34,-439,263,-60,-859,-69,-700,-13,-187,-209,-273,62,-286,-39,591,-18,-491,40,811,-51,206,36,500,128,37,45,-59,-51,-8,-289,-664,4,-261,641,-393,-1,-305,-83,-72,-53,530,-673,221,-23,-25,31,246,-106,-244,1,447,-101,373,-76,-58,-118,42,-60,1,-56,-10,-77,-2,-25,-1073,34,-164,66,5,58,-77,9,-53,15,52,-17,-60,18,-25,3,51,-29,-7,-32,0,-12,-26,-23,-45,1,45,21,2,-46,14,27,41,12,-53,-36,-10,-177,-303,6,-1133,54,-19,23,-796,-10,234,-264,-193,-63,107,44,224,-27,-396,75,-93,-43,-15,-5,0,-332,-214,-59,-594,-1787,-830,-359,122,-74,-396,-35,-484,-1060,131,175,-186,-33,60,299,-1364,-76,287,-18,255,-60,-154,38,2,-26,-50,5,-99,-560,-1230,-69,-57,-581,-96,48,32,11,-28,-55,-20,-42,1,-37,-44,59,-55,18,12,-42,0,11,-5,-27,-28,-35,-57,-30,-37,-65,-43,21,-7,5,12,7,-8,26,-13,-84,18,47,7,33,-37,-29,-73,42,15,-22,-51,-42,4,-17,97,12,0,-40,-27,31,-56,-14,-8,-160,-3,14,-16,-101,42,240,-1432,6,-584,-74,160,-264,270,134,-1187,-64,69,-558,91,-22,108,25,262,-46,-171,-80,14,-10,-77,-193,-41,-113,52,4,111,-128,-49,28,-24,-67,10,21,7,1,34,-15,16,75,-4,-52,-4,-54,23,21,96,16,16,15,50,-15,-49,-33,-3,9,-24,-58,45,21,-68,-184,-24,-111,-58,-74,255,-227,-23,-79,36,52,119,121,111,33,25,34,14,55,92,-52,-3,-28,-54,44,-47,-83,-33,13,34,122,-136,72,-47,-118,222,-6,-246,-84,-328,171,-20,-49,-157,-390,103,31,256,-2,81,18,-86,-357,-4,-24,-23,-17,-59,244,-78,3,-40,-398,-106,-181,214,-394,-418,-95,-488,400,86,-136,42,-41,-384,17,-40,9,437,-23,-862,-6,40,177,-3,-57,-69,-28,-72,857,453,-67,366,193,163,-28,30,34,60,-11,-103,-24,-22,61,-44,-47,87,-15,25,-68,45,-50,28,0,-59,-27,-28,-7,-36,35,24,-58,10,-35,-24,-61,-37,-66,62,-115,114,8,-8,35,-30,89,172,33,48,-15,-57,14,48,13,-77,16,28,-95,-23,58,-57,-66,-23,-32,22,8,21,94,133,-51,-11,36,5,33,10,-15,30,34,-29,47,14,-27,27,15,-7,-20,62,-36,-15,29,24,-18,72,1,-59,-38,-47,-2,35,-7,48,21,49,-72,45,10,11,-53,90,-56,-21,43,23,4,-41,53,-31,-19,0,-64,39,32,-29,15,-60,5,-65,-31,-17,50,-68,-12,-54,-7,-76,46,207,7,16,87,-19,124,-65,18,127,-13,48,17,-18,-21,-92,-21,56,93,54,-56,-18,-30,-40,6,-61,-51,16,-203,-3,0,-46,-84,0,-7,0,-67,106,-22,-57,-48,-49,9,-50,-60,17,-51,-75,-7,-99,18,13,-54,23,-55,-3,-47,4,53,-106,-53,5,22,-105,49,179,18,146,-2,83,-44,212,39,5,-25,-96,-59,-114,-15,99,60,-15,-75,65,0,16,20,-37,199,-54,-28,36,-58,5,-201,-693,-186,-235,-55,79,-140,-23,-30,-198,-50,646,-204,-158,-27,281,20,66,37,77,118,-5,16,-71,43,-36,-246,637,-17,27,-657,171,-263,-44,-147,924,-6,-929,-118,-537,-51,269,-56,-814,-601,-4041,-46,207,-44,15,-40,261,-219,-21,-65,-37,-83,-74,312,-1086,-41,473,-396,265,-359,174,-114,-347,39,-317,-693,-4,-402,-864,-87,-64,-542,-67,10,33,25,-137,-97,-593,205,-56,52,-31,-95,79,-178,-263,-21,-48,-185,-156,-6,142,-51,224,-56,326,-932,298,263,-544,-11,1793,-336,-42,-70,-222,-8,-217,-32,68,2,24,6,-39,-101,-95,-392,-184,-38,-701,78,-281,19,-961,24,-1017,-57,28,-1247,45,337,151,-96,78,336,176,-30,861,-5,192,25,232,52,3,-25,9,-25,-35,380,-113,25,-335,-49,-161,347,-1358,-110,-142,31,139,-1171,525,-128,-672,-18,-450,-65,-989,8,743,-54,-109,-42,120,-412,-8,-4,-63,-41,-31,-29,-174,32,-149,-528,175,87,-242,-104,101,-57,-564,440,-424,-368,-32,36,-646,-301,-214,-59,176,-28,-461,-62,30,74,-18,-55,-68,-147,-42,422,65,-18,641,-574,-446,21,-39,-3,-104,-69,191,-99,10,-16,106,16,74,-196,-101,-44,13,-46,231,36,22,-38,33,5,20,34,-8,135,-168,-55,122,-54,-4,6,-7,92,-76,33,44,-38,0,6,60,73,-6,-63,-64,-39,-36,-40,23,13,15,-79,46,75,63,14,-5,-84,-11,8,-42,4,-20,156,-1120,87,214,-48,-233,143,100,-467,-61,-74,-23,-1421,-1330,9,52,-54,-88,-30,-389,-436,-70,40,11,-37,-134,-204,-276,56,-256,-428,-1735,10,95,32,90,-1,-77,331,77,5,96,14,168,177,141,-34,-28,25,-87,-43,8,-9,4,24,36,-1,23,179,-190,-70,-172,172,-257,-158,-401,-33,-339,17,-516,-442,402,-273,285,-21,-466,-696,-91,-91,-84,-37,193,36,-708,-351,21,25,48,46,-62,245,-599,-49,141,470,-418,492,-291,-190,-362,-2,-299,1133,752,-867,-261,19,-414,-643,668,9,98,38,6,4,190,293,-36,14,-7,41,-6,995,-766,11,203,-355,-17,332,-988,-6,-1160,7,-319,-260,-1024,424,-488,-1,-658,-241,-483,33,691,-70,331,-34,340,442,-11,-22,28,36,-68,-272,-270,12,-180,-1,-331,-119,-715,-143,-80,6,89,181,-204,583,-99,20,100,-111,174,7,-273,-26,161,-79,-159,-7,-74,46,-22,12,-125,-265,35,-88,251,-278,-194,44,-23,19,-53,13,8,-14,-5,5,50,52,11,-82,-25,17,72,-27,-3,-45,65,3,6,15,-52,37,-6,-33,-51,-15,-15,60,8,146,-58,-123,70,51,-834,45,-170,-121,-976,-41,37,6,-37,-51,-203,-23,292,32,-23,-139,-22,13,-78,32,-129,-187,-203,23,-352,-653,-245,4,118,-68,-322,-36,406,-1027,-32,213,-401,-78,-164,85,-597,-40,171,19,-687,-87,120,-9,47,-43,27,-57,-5,224,81,-4,-65,-781,-192,-30,48,-55,13,3,-28,-15,25,12,48,-24,-1,-23,44,0,9,53,-37,0,44,-20,-1,-63,33,23,-4,29,9,53,16,-1,29,-19,-10,-59,-53,-70,35,-41,-41,-109,24,34,15,59,-14,-18,80,-39,-57,-24,34,32,-24,-38,-32,-35,37,-159,-52,-31,84,-19,-13,133,-2490,5,-483,-45,-396,-160,-521,280,-1631,-54,-44,-191,229,-61,-115,-34,435,-106,297,24,-62,-65,-87,-145,-9,-110,-15,-20,171,216,55,15,-37,-57,11,-57,9,6,-54,60,-64,-24,70,-39,89,-60,31,-18,68,9,54,87,13,-57,19,-25,25,36,7,10,71,25,27,-80,-16,-204,-19,-17,253,-202,30,-132,-7,49,112,11,-41,57,13,-4,-15,-66,92,-31,-14,-38,0,36,25,-166,-100,55,-91,22,-30,238,22,-183,240,17,-140,-314,-271,57,-18,31,-106,-81,37,-18,162,8,-99,17,207,-327,-67,24,-81,5,-80,53,-140,-45,-65,-550,-38,151,35,-295,-442,-107,-118,604,115,-50,184,-87,-305,78,-81,-27,325,-39,-81,-5,-57,-32,-89,-36,4,53,-45,874,684,-30,225,160,3,56,12,-73,-53,30,-77,7,-16,56,51,7,70,-46,-25,20,16,-38,-116,23,-99,-30,8,24,-59,-60,29,-22,-49,-27,9,-55,-23,8,87,-38,28,38,-8,-44,81,42,83,-13,57,-16,-107,1,42,32,-35,-56,-28,-123,17,64,-3,31,-4,-3,52,33,-12,45,106,-18,16,18,-14,-19,6,7,35,35,47,-49,5,37,-32,11,-3,27,-2,-59,12,0,-4,46,36,-37,10,-40,32,-33,72,-8,-29,-38,-42,-71,-50,-31,2,-30,48,-64,27,-60,-42,-25,-3,-45,-40,2,24,34,73,-19,3,-33,32,8,19,38,-10,56,-59,55,-55,35,-48,42,211,50,34,32,14,97,-72,41,56,-48,116,14,9,-52,-172,-16,36,76,1,18,22,-30,-4,-45,-109,39,-22,-100,-28,-40,-25,-11,11,-17,19,-56,36,-59,25,-89,-75,-29,-46,18,18,1,-55,-2,-48,-13,-46,18,-44,-9,57,-14,21,-33,-78,-64,-22,-47,-137,-57,189,-40,107,163,28,65,85,-59,-50,21,-79,8,-77,-50,-67,-9,-24,-100,-21,-24,7,-31,38,103,135,-19,159,-48,60,-271,-698,-126,-496,-99,329,-120,-372,154,-160,6,63,164,4,-1,427,9,97,48,-276,-208,-116,-63,28,76,-35,-468,437,-64,214,-189,96,-255,306,-138,938,-87,-489,-594,574,-219,74,-36,-271,-869,-1698,-1,-45,-33,563,-77,-128,-207,-98,-58,6,-81,-3,125,-666,-60,-437,-886,32,102,241,-110,368,-59,-264,193,78,-664,-181,-23,203,-361,-144,36,-356,30,-654,-28,-772,42,-94,36,-51,-112,-22,-79,-272,-25,222,-1100,-101,-96,-293,-76,16,-32,-325,112,-545,8,-103,-6,110,491,-20,51,-112,36,-706,-27,20,103,-67,-34,-37,-131,-31,-396,-394,-65,1031,495,85,-162,-740,-11,-870,-16,-36,77,-258,-423,198,-62,-361,47,208,64,320,21,-104,31,-135,78,49,-43,-71,-50,-38,94,-220,21,-168,-171,117,-756,-1204,-46,-24,-29,-726,111,5,-574,-306,-54,-453,48,-117,34,645,51,-622,9,321,196,-56,14,-14,-12,-99,246,-132,-30,612,-936,29,-66,-124,-102,162,-49,52,-308,689,-345,327,-57,-539,-344,-279,-76,19,12,89,-64,93,84,39,8,-3,-163,17,698,2,-14,-565,-643,-220,76,-75,-79,-41,-5,177,-48,69,45,28,-49,-20,-218,-115,-11,-88,-75,78,-20,-109,5,15,-17,20,-4,29,-5,-57,-47,-80,-42,12,9,-29,59,-13,-11,97,-43,92,34,58,-7,-32,35,-5,29,-80,-2,58,2,-77,-69,13,52,26,21,-45,-73,-11,-19,106,66,63,279,184,5,137,1,0,-1109,-1049,-223,-6,-68,-200,-891,-770,34,-328,-12,-181,0,-162,-633,10,-64,-38,-52,-81,800,-597,-32,-401,-716,-384,43,70,56,0,19,54,-63,109,-54,28,67,-66,45,-3,1,44,-5,-263,-45,-105,103,45,33,-25,-58,-27,-66,-228,-49,80,59,-323,218,-31,45,-42,18,197,599,-21,-448,403,9,-368,136,605,-102,-913,-2,151,18,26,-603,-47,-45,-70,37,-91,-46,-230,-45,-359,650,-64,80,215,-127,261,7,409,901,-13,-1231,457,-6,-240,-693,197,45,6,-57,240,-66,-474,233,51,-53,56,-33,-57,633,-354,-56,-317,653,402,728,-1729,35,-1934,28,-263,-614,-793,206,-107,-80,-410,-584,790,18,827,17,-412,52,333,258,10,28,-28,39,-2,-351,-391,-38,-506,-527,-262,-117,14,-136,-183,19,-24,-222,-49,311,-130,35,292,-46,307,-59,-642,-66,-198,28,-256,-31,-34,-15,-13,-53,-121,-424,64,-54,-62,-271,-180,-22,36,42,-24,1,-12,-37,51,16,3,54,-20,-97,-36,14,28,36,-43,51,-83,53,-65,-18,38,45,6,-4,-32,41,22,-41,-75,16,-180,-152,132,-42,116,63,-244,-148,-808,-52,-310,-311,88,17,-226,34,137,-43,-7,1,-80,-47,30,-55,-143,-331,-633,-35,80,118,61,-56,252,-36,-975,0,553,-449,-248,-750,140,-37,713,-170,-191,-67,453,-35,-916,-21,-660,-414,-5,-15,37,-38,58,415,99,-25,-590,-586,471,-38,47,-34,-42,25,-8,61,-33,24,-33,-2,-62,-9,64,-32,-44,34,-45,-38,52,-42,31,-24,34,-32,0,-38,57,36,-8,0,-31,48,113,26,-145,-49,-57,-2,-36,-38,-62,47,-13,-48,31,-38,93,1,59,47,-71,64,-43,-4,37,-30,-38,2,-43,25,-98,-56,-45,308,-1889,48,-370,-25,-205,-307,322,114,-964,29,-28,22,-35,-105,-332,47,66,5,-179,-26,-72,-61,-29,-30,8,-41,-57,46,-204,-15,127,13,-81,-16,-11,20,52,7,1,51,-4,-92,-25,35,34,19,18,-40,13,-62,-36,16,-7,42,20,-3,-6,43,-78,-29,42,109,-47,-336,-141,-89,-136,-94,229,-188,8,-76,-37,32,93,-25,-113,-41,-23,-30,-107,35,37,-107,25,-31,46,-55,-47,-33,-121,23,-22,59,-134,87,-1,-175,213,-28,54,-520,-95,133,-87,-34,-93,-117,42,-33,-204,19,-8,38,85,-104,-71,-44,-66,-4,-95,-53,18,13,-109,-403,-120,82,140,-244,-635,-35,294,-253,135,52,198,-82,287,289,-52,26,-559,-21,612,22,0,45,-2,-44,-19,26,-32,605,263,-53,-99,118,-146,-42,-9,-41,33,22,-84,56,12,121,61,47,-26,-33,-5,48,33,-34,-97,-72,-9,102,-22,14,-68,-27,-7,-46,-11,-51,-63,49,6,75,116,-50,46,-29,-55,43,45,4,98,-34,50,-24,-64,-55,6,47,-72,54,30,-82,-51,-7,24,55,-25,-21,2,-18,-90,-17,86,-52,-54,21,54,61,-19,17,-50,58,0,-35,38,7,43,31,-44,-47,-24,-35,-14,44,-44,4,61,38,17,-1,10,32,53,42,-18,-67,32,5,53,43,84,43,60,30,20,-47,17,-55,-17,33,8,-51,33,-25,57,-32,60,24,17,18,27,-15,21,17,52,-59,-34,13,2,17,249,-16,-42,-108,35,122,-58,-13,-40,17,29,8,-95,13,30,17,4,69,-43,-51,-36,-24,-54,-18,-96,51,-26,-92,-32,-50,-58,1,-62,-60,76,8,35,-29,-16,46,-95,19,13,-65,92,-51,-81,10,-64,42,56,25,-44,44,31,56,-8,-40,71,-46,32,-51,21,35,208,17,120,109,85,105,69,55,80,-18,-92,20,1,-44,-111,20,-35,-183,67,-65,56,-48,31,100,119,-43,96,-292,-40,-463,-50,-156,-302,-1,-128,-521,281,-11,-431,-50,-145,262,-299,33,-591,-76,-307,-72,-256,-252,-62,-37,34,16,-133,-376,1,-38,-185,-55,-321,-126,-79,-99,397,-45,76,890,-22,28,-279,-57,327,-1217,-826,-43,-519,19,584,-86,-267,70,-62,-10,-27,50,0,182,-267,-43,-126,149,-93,180,-600,59,-472,-26,-844,153,-127,-259,-486,-117,-550,-12,528,-139,-1708,-80,-623,4,283,-326,15,8,-43,11,7,537,-448,-56,-413,366,-915,-21,371,-31,28,53,39,181,39,-68,-304,-78,116,147,-52,-26,-160,-35,77,-62,-45,17,-38,-18,-9,-85,-35,84,80,-41,-37,-17,175,-28,441,19,-403,-131,-168,465,81,-960,-287,19,-347,10,-617,-3,-301,-63,122,-4,174,-174,8,53,-33,-79,51,-581,-138,-3,-184,203,-308,-511,-1679,-137,-2,3,448,-845,-803,-1087,79,-23,-182,318,299,29,-498,-35,-517,0,892,-338,6,-25,-31,82,-17,1011,-984,48,6,-106,-27,125,-7,-5,106,-66,-233,-70,-39,-216,262,-32,82,-458,82,-16,-179,-61,268,-42,-63,32,-51,-70,13,-158,19,87,69,-40,-427,-115,278,-7,-151,37,-15,-23,194,32,101,-120,31,3,108,-181,-180,-123,-14,39,95,-52,26,-23,47,-27,-8,11,-36,52,-250,0,175,-245,41,-35,-37,-24,6,-53,-8,59,113,-3,82,68,34,27,-61,21,-68,24,-61,44,-92,-82,35,81,0,-23,-3,90,-14,13,84,104,-51,18,154,17,-947,-80,-523,-1445,21,615,-161,25,18,-274,-601,-77,-253,26,263,-79,725,-979,-31,17,-17,-20,51,-304,-390,41,804,-1014,-923,207,-234,-11,50,-20,-19,-84,68,-151,-40,-3,-13,14,252,-39,220,63,-311,-31,-26,6,-42,-51,36,23,56,-109,10,-24,53,-336,-25,-47,-81,-70,-377,-91,-770,-108,-606,-302,-737,22,-364,-412,-484,-77,-772,-96,-281,7,-587,-697,27,-53,37,-88,-64,-119,210,35,-87,-352,-320,-459,-202,-257,-703,3,370,83,-637,-230,-1318,-73,-1149,-3,37,-2,373,-1,825,52,-333,248,-25,-37,70,48,55,809,-522,3,-621,-430,-288,-1164,-326,-98,91,-77,273,-455,362,-1119,-3,-55,-22,1034,20,-49,328,20,-584,-36,783,-120,0,-36,-6,51,66,-701,-99,-28,31,767,-331,-148,-604,3,80,3,215,195,-148,167,123,-46,-285,267,111,-46,-1061,-36,-629,-73,-378,93,-36,29,34,-89,-80,-528,-374,-16,212,745,-450,12,-30,57,16,0,41,5,53,50,5,-3,34,-63,-8,22,1,-54,-20,49,13,0,43,28,40,-48,-32,0,49,-4,9,53,-45,-120,-261,-28,-4,14,-79,-64,-73,21,-568,-15,115,-1786,70,-32,-421,-49,-59,-29,-322,36,12,-31,-45,8,-19,-226,-200,8,66,-1087,-58,-897,209,-4,579,-4,202,398,-690,-1607,70,-8,-206,-691,-90,-12,-103,-33,436,-36,1,-819,-28,-55,-9,-52,-42,165,-548,20,-113,-1354,662,7,-38,7,-21,54,-55,-63,-65,-34,-46,-42,-50,-9,40,-3,-39,-32,-29,47,23,-46,-32,7,5,-63,-48,14,-19,56,-28,-37,10,1,-52,-31,-47,18,-17,12,30,-75,-25,1,-46,-51,19,-39,-46,20,-29,25,-22,6,19,-22,-8,24,38,-51,3,-34,33,-148,90,5,95,-15,-54,-55,-289,-180,-90,-4,-794,41,-179,403,-293,-36,-620,-47,-540,-47,210,57,-62,-26,-68,-85,-56,-222,21,-20,76,38,300,4,24,-23,-25,-3,-51,7,90,78,-66,41,7,-45,-26,-18,-39,-27,44,-41,-8,3,-46,18,-40,-45,38,-66,-5,-47,80,-15,-6,-367,-35,-83,-88,-42,127,-116,-247,-107,-157,0,-195,190,-16,57,103,49,184,-9,9,-532,-43,7,45,-35,-29,-145,-33,21,183,132,-136,-361,-396,-66,215,-50,39,-387,63,-25,90,-73,-19,14,-167,33,-86,-7,-358,-68,-54,61,-53,-50,-51,40,18,120,-23,15,-57,72,39,-8,150,55,20,-96,-111,-702,-97,-357,87,-51,-348,-240,347,-15,-336,4,566,-34,73,35,-45,-15,-77,-97,-47,48,-336,-42,-102,-244,-155,78,29,-30,-14,19,-83,20,-89,47,-29,21,11,-76,-38,42,-38,49,7,2,-63,42,-29,-59,4,-33,31,-30,74,0,-101,6,-88,-33,-4,-19,44,7,58,94,-73,4,114,0,18,-10,-88,1,1,1,55,35,-99,-79,-5,-47,54,-2,16,46,-47,12,-68,61,134,-41,50,-21,32,51,58,-15,-40,0,35,-34,33,16,-22,-7,-27,18,8,-39,12,24,-52,-26,19,3,48,23,-8,-36,-53,11,-40,-66,47,-6,-63,52,-13,-36,66,-34,-8,18,55,-86,12,41,-7,4,-38,44,10,-30,-9,-2,-19,55,-9,30,-18,-56,49,18,-5,21,-80,57,-61,29,8,154,73,111,-44,-8,-46,67,-3,20,44,-6,-82,-49,-17,5,13,-47,-68,-55,-57,15,5,-29,39,-96,38,20,-79,-60,35,-28,47,-26,22,-38,-35,-14,44,-37,-78,29,-61,-27,-64,-15,-131,-47,44,6,-47,24,11,-2,0,-5,-118,-64,-8,-112,-1,21,46,3,155,-5,259,-105,127,-16,133,-11,-167,9,-29,-21,171,59,46,-96,48,-18,-27,11,20,53,-150,-51,32,-79,-76,-188,312,-58,-7,-131,268,85,-8,-26,-154,21,175,314,-552,-91,-587,-17,134,-41,-196,215,-111,4,-72,54,13,-414,95,-30,495,-162,301,214,-217,40,-64,-1,-67,168,-29,-2,305,-66,-184,944,-945,53,25,5,-63,-22,-605,83,-46,13,14,-100,68,120,650,11,2,655,-225,41,742,91,-399,-106,-637,-214,-364,180,-688,-106,66,81,65,-136,-503,35,-330,25,82,-4,9,61,37,33,-31,-478,-260,-72,-521,17,-77,340,289,-74,-6,9,-44,-36,-12,-217,225,26,32,-467,371,-72,-287,-40,-206,-8,-126,-28,-1,41,26,32,-50,30,114,-78,124,97,-94,-171,365,105,-832,-103,129,631,-32,-140,-581,0,-253,-642,-619,-31,-36,-53,-479,30,173,-278,71,-44,-8,62,74,-239,96,-56,507,-358,-547,-922,-1340,-73,-301,-47,2,-895,-279,-573,-219,-56,-55,328,195,0,-891,31,-1191,0,360,-846,-60,39,22,-31,26,-656,-34,35,233,163,101,140,-6,-6,49,-99,-307,-86,22,-231,80,-26,90,-264,-159,-12,-173,-6,-408,-39,39,2,20,-40,-18,-148,-71,291,-76,-78,-463,-252,259,-45,-109,14,-116,31,200,103,145,-37,-43,22,10,-165,-79,-97,28,-41,23,-47,-2,-85,28,-13,22,-27,-67,93,-276,44,241,-251,-25,17,-48,23,-2,54,-62,7,80,-8,76,90,56,6,-95,-25,-51,56,-48,-43,-5,-56,-35,-16,-37,30,17,24,-64,-4,95,67,-17,58,654,88,-950,-34,-256,-253,-59,83,426,33,-361,-1385,-334,-63,-772,-50,-89,-47,-308,-873,-55,5,-18,28,-28,-733,-606,-9,-279,-1823,-282,-123,118,60,-24,38,-65,191,-66,-111,-109,48,154,107,358,-52,29,-40,-300,51,-91,27,38,-38,-67,53,20,-19,-50,-70,-30,-34,172,-332,13,88,217,-95,-359,-557,-28,-387,49,-54,271,-106,103,-16,-596,11,-419,13,-465,291,-98,-94,42,42,5,-106,-32,20,199,-662,-108,-253,-65,-291,-187,54,375,294,-1114,-264,433,-45,-418,743,173,-12,642,51,-304,53,-77,463,15,25,19,60,117,323,-47,6,-347,-553,-408,-696,-474,-40,-170,32,246,-25,822,-831,41,32,573,397,-136,-2,96,8,-482,-57,703,29,-51,-51,10,-51,15,-226,389,-26,-367,568,-67,60,-433,26,48,-85,906,-62,40,394,207,14,194,40,-108,-55,-908,-24,69,-22,-218,7,-101,-32,-49,-84,-19,-809,97,-13,144,-14,131,68,33,-16,-56,-13,42,-16,-11,-8,3,-28,-28,-4,-53,44,-35,48,-79,-42,46,35,-13,-7,36,23,3,33,-41,-19,-16,1,-82,-30,-172,-19,33,7,92,-282,-177,-35,-620,-35,131,-1208,-178,-45,-568,47,-308,6,10,0,-104,42,-23,7,-23,5,79,-29,156,-785,-391,-722,-376,55,504,-100,297,729,-735,-1139,-194,-15,-312,-372,-942,14,-474,25,255,-33,-155,-860,-17,27,-28,-9,-73,799,-975,-47,-440,-617,625,-1,-22,13,-32,19,55,6,31,42,58,-44,35,64,18,-13,-33,-68,20,-27,-48,-23,59,-18,50,32,-44,-6,-8,5,51,-49,-41,16,-71,35,8,-55,-26,13,38,-106,-158,57,-75,-19,21,-1,14,-39,-9,44,17,81,50,-5,-10,-49,31,-31,-22,26,-76,-19,119,145,-766,-21,-5,30,360,386,44,-13,-996,19,133,4,30,-119,48,-74,-468,-22,-3,104,1,35,-74,-68,19,224,-49,15,276,79,-308,64,-9,38,-2,-40,-7,35,20,98,-7,86,-1,-14,65,23,7,-46,-20,-7,32,-48,7,-7,-59,-42,-30,-5,26,-6,-3,-47,-71,-284,5,-142,3,0,63,-34,-118,-164,-192,-7,-73,172,89,-6,88,19,164,9,2,-486,41,-25,42,-64,-56,-60,50,26,41,77,14,-193,-307,-17,258,-35,-52,-249,-82,213,37,3,-69,213,-147,27,108,18,-262,-7,254,-97,-27,-84,-116,41,-100,183,10,7,121,-104,-121,-36,70,-96,-185,-32,-325,118,107,65,-52,31,-315,-194,395,3,-185,-64,-291,-69,129,125,-29,-43,4,-141,-92,276,-414,-72,58,-39,55,34,37,29,-45,-29,-74,129,90,-4,31,-61,-45,-5,-23,32,-13,-23,50,-57,16,93,50,-49,20,-21,36,-18,-9,-3,-86,-97,21,-12,-4,-30,119,6,-57,74,-31,-15,125,36,-71,-54,-19,25,11,43,-27,27,-42,-89,37,27,-54,42,40,-24,-83,-41,-69,48,28,56,-2,-30,48,-61,58,-4,64,51,18,9,48,-11,-24,53,-25,44,11,-60,-25,-45,42,-4,32,21,50,-8,14,-56,29,-15,-10,-33,-10,0,-54,-53,31,-16,44,-6,-34,-1,-14,-35,77,-47,-39,42,-36,-23,-9,-44,-1,43,-45,28,-67,33,-1,20,-25,40,16,-24,-11,62,67,4,54,90,116,31,-105,37,-77,-1,-77,-10,-65,-40,-115,-38,68,73,35,-23,46,50,-39,-25,-6,-39,7,-156,65,2,15,-22,88,-58,19,-70,61,45,-93,-30,52,-14,-59,39,-49,24,-71,-26,-101,-21,-26,-41,8,61,-8,-33,16,50,-41,-22,25,-109,-41,-60,124,-38,128,95,113,-27,101,-37,55,68,-107,28,0,43,-22,14,0,-184,61,-20,-51,-41,31,39,-84,-33,122,91,-37,112,-261,4,187,-125,448,-521,-110,129,-71,11,87,286,204,-53,369,-53,-34,33,-305,84,-72,-60,-20,-19,93,-858,361,13,-143,200,224,-219,175,-123,600,-22,-188,61,49,-18,162,-26,66,1087,-2567,-20,-199,-47,-863,2,-607,207,-42,-100,-103,-111,4,294,216,-59,-44,584,218,36,126,-29,-199,-88,-1216,298,335,-745,476,-98,-143,-309,-118,-126,-94,10,210,-49,-16,322,-91,56,-77,-46,-34,-875,213,-80,105,-1089,-600,199,20,2,82,-106,36,424,44,93,171,-23,200,348,386,16,-132,-108,211,-43,-258,105,-37,-16,-121,-163,5,-198,-109,-77,1046,478,-42,-587,285,114,-799,-54,685,-81,-235,-138,-856,-3,70,-305,313,29,91,-64,-16,-45,-152,-299,61,5,12,-34,-7,42,486,5,-238,388,-43,-1616,-1952,-160,-145,-32,-50,-970,387,-308,-754,-49,28,811,-134,40,-1158,15,-699,-63,-225,-749,20,40,-44,-39,36,-535,390,-22,39,-776,225,144,133,48,7,8,-380,-261,-48,-323,191,-41,-756,-220,176,-51,-255,-87,141,-11,32,-109,18,-54,14,-240,-73,336,-44,-82,-205,-499,-53,-10,-121,-15,-95,-56,147,84,90,-25,36,-25,108,-208,-80,-15,-59,58,78,-39,-50,-67,48,66,-16,15,-6,149,-251,-16,242,-308,140,-49,25,-14,-2,-46,72,-17,-8,-7,-53,32,0,-56,-10,-53,11,-63,-96,-1,-23,6,-49,48,28,32,-19,-25,30,8,71,20,0,-224,-75,142,-1102,-44,-1187,-985,267,110,491,-38,180,-1489,-61,-11,-520,-13,-695,38,330,-314,-15,-74,-32,-1,-23,-222,454,-48,113,-1681,-143,110,115,-58,-26,8,135,221,20,57,-263,92,152,-61,179,29,-149,-11,-368,-59,-122,-139,-12,44,-45,-5,44,-210,-183,9,37,200,-70,89,146,-38,1105,22,-625,228,-190,-681,115,-106,-7,-439,283,-103,-1016,31,445,-72,-433,94,-49,-10,43,-75,-24,-413,18,12,-410,740,-34,50,-54,-299,42,-8,-54,368,-545,-472,181,58,-369,174,210,58,868,-25,-316,-11,-137,84,39,0,1,0,112,981,610,-8,191,-106,-34,-299,-865,-74,-538,14,-33,-953,196,-631,-21,-15,395,-26,-446,-37,209,-51,-753,62,654,130,-63,42,62,59,-20,-111,632,33,-474,373,38,-5,-355,33,6,-75,-213,-526,-86,-96,174,-25,229,86,-426,-61,77,-26,316,23,186,66,-18,-46,-30,-5,29,-761,58,-55,-362,284,-23,68,32,11,-73,38,3,74,2,-45,7,46,-10,16,-47,39,49,23,-41,47,-78,-23,54,16,7,-24,55,26,18,-8,-68,52,23,-107,-22,-68,311,-28,-1071,197,-111,75,-647,-55,-371,-430,90,-47,208,-26,-112,-26,-197,-3,-71,-72,-50,-59,-106,-138,-66,-7,127,-454,-214,-396,-337,58,65,-33,668,-231,-392,-892,-451,-41,-175,-206,-830,-65,-164,-10,-381,-20,-243,-761,44,28,12,-28,-9,770,-585,-11,872,-669,529,-22,-12,8,36,-19,-37,-31,-43,30,49,11,66,-7,55,19,11,-35,-15,-1,-55,20,32,51,-37,-51,-49,36,-44,-38,-24,-36,20,45,-86,9,-36,22,-46,65,23,-75,-34,15,-50,-26,-38,-24,89,-38,-113,-7,133,18,13,21,66,-23,61,-80,-84,-49,28,-8,117,119,-686,-53,-230,28,459,-257,222,-14,-1027,6,347,-179,-110,0,-190,46,-234,17,-62,-9,-60,-63,-71,-169,-25,109,140,13,115,-345,-5,49,-33,-1,13,-44,56,-6,-49,-1,41,-22,79,-7,87,-6,32,40,-15,-55,-9,-26,36,-56,28,22,0,-10,-56,-15,9,27,12,-239,12,-180,-41,-71,108,-28,-95,-41,-67,-57,-87,146,-5,1,43,52,181,42,-12,-347,-35,19,-6,-24,20,-188,-94,-29,-145,154,-12,-120,-146,32,310,-90,-292,0,-265,144,-91,-14,-83,-288,-89,33,111,-68,-79,12,82,-58,8,-76,9,8,-27,198,-66,-73,-34,-135,-108,-178,90,-70,-334,-72,-257,244,117,-327,-185,-59,81,95,336,-27,180,-41,-582,-27,94,171,-70,-66,-44,-16,-102,132,-272,-77,-47,61,62,66,-52,-13,45,20,-16,13,15,48,-9,32,53,-30,-50,-36,30,-43,59,-64,-58,22,-45,-44,-17,-10,12,13,91,12,43,5,40,-8,37,-61,91,-45,-53,106,-2,-87,109,-6,-26,58,43,29,38,-6,4,-5,-47,-101,27,-3,-19,-46,0,13,44,15,2,-28,101,23,60,0,49,-39,-76,14,-45,22,-54,35,34,-35,-10,-51,-4,-56,-21,-50,47,49,44,37,3,16,-21,2,-45,-41,-26,-57,-66,36,11,39,55,8,85,-20,-19,-1,-1,-52,-62,30,14,54,46,54,-10,43,45,0,-26,-24,11,-61,-29,38,-61,-42,-24,48,2,97,-107,46,64,42,-65,81,93,-37,-56,26,-98,-64,-34,-58,4,-39,8,-33,76,32,15,-52,-51,-51,21,38,-113,-51,27,-101,-22,58,-85,13,34,-54,29,35,61,-49,-12,-18,76,-29,-60,16,-49,-9,-37,-3,-80,10,10,0,7,59,-24,36,-15,77,-95,26,-98,-139,-60,-3,98,-13,7,69,180,-29,75,-52,-130,294,-80,0,-110,-60,-2,-46,16,-65,-54,42,-44,-24,27,0,92,-55,99,-87,-84,-68,-501,-9,231,-75,-377,445,133,-210,-155,26,-93,189,-671,1,308,-85,-33,2,156,162,25,13,-28,18,-26,-398,8,-19,-902,-237,167,-84,-65,-222,985,-15,-541,-404,20,8,91,-4,-124,587,-2560,-51,50,26,-455,-62,-33,180,-45,-74,-75,-102,-19,46,-142,-11,179,142,97,111,-79,43,-566,-140,-241,-921,-878,-668,-903,-65,-197,-1318,16,-109,169,-60,450,-60,96,68,-14,17,10,-153,22,-107,-216,-13,-409,-331,129,74,95,-23,102,-115,277,-1047,49,-40,11,26,46,491,235,13,-387,-39,157,-47,-179,-60,-76,15,25,-100,-24,-303,165,-45,-845,556,0,-219,181,152,-290,-8,65,-705,-296,-64,-811,-66,552,-371,-366,-74,260,-13,31,-15,397,-139,-32,-67,-45,-157,26,-446,480,-11,-336,208,115,-1124,-2347,-114,70,0,296,-1150,874,-370,-1093,-56,-147,227,-647,60,-551,-10,96,-30,127,-481,-49,-34,47,-29,42,-301,-148,